FILEHEADER = {
  magic: lCRF
  size: 119560
  type: FOMC
  version: 100
  num_features: 0
  num_labels: 2
  num_attrs: 1303
  off_features: 0x30
  off_labels: 0x9330
  off_attrs: 0x9B90
  off_labelrefs: 0x18CBC
  off_attrrefs: 0x18CEC
}

LABELS = {
      0: RESTR
      1: NON-RESTR
}

ATTRIBUTES = {
      0: word.isupper=False
      1: word.istitle=True
      2: postag=NNS
      3: modifierType=_
      4: +1:word.istitle=False
      5: +1modifierType=_
      6: word.istitle=False
      7: lemma=be
      8: -1:word.lower=investors
      9: -1:word.isupper=False
     10: -1:word.istitle=True
     11: -1postag=NNS
     12: -1modifierType=_
     13: +1postag=VBG
     14: postag=VBG
     15: -1:word.istitle=False
     16: -1postag=VBP
     17: word.lower=to
     18: postag=TO
     19: lemma=to
     20: -1postag=VBG
     21: -1lemma=to
     22: +1:word.lower=the
     23: +1postag=DT
     24: -1:word.lower=to
     25: -1postag=TO
     26: +1:word.istitle=True
     27: -1:word.lower=the
     28: +1:word.lower=and
     29: -1:word.lower=securities
     30: +1postag=NNP
     31: postag=NNP
     32: -1postag=CC
     33: -1postag=NNP
     34: +1:word.lower=not
     35: postag=RB
     36: -1postag=RB
     37: +1:word.lower=their
     38: -1postag=VB
     39: +1postag=NN
     40: postag=NN
     41: -1postag=NN
     42: +1:word.lower=information
     43: -1modifierType=INF-MOD
     44: +1:word.lower=about
     45: +1postag=IN
     46: postag=IN
     47: -1postag=IN
     48: +1postag=NNS
     49: +1:word.lower=sales
     50: word.lower=by
     51: lemma=by
     52: -1:word.lower=sales
     53: -1lemma=by
     54: +1postag=JJ
     55: +1lemma=by
     56: word.lower=corporate
     57: postag=JJ
     58: +1:word.lower=insiders
     59: -1postag=JJ
     60: +1:word.lower=.
     61: +1postag=.
     62: +1:word.lower=,
     63: +1postag=,
     64: lemma=manager
     65: -1lemma=manager
     66: +1lemma=manager
     67: postag=VBD
     68: -1:word.lower=officials
     69: +1lemma=had
     70: -1postag=VBD
     71: word.lower=on
     72: lemma=on
     73: -1:word.lower=comment
     74: -1lemma=on
     75: +1lemma=on
     76: lemma=issue
     77: word.lower=has
     78: postag=VBZ
     79: +1postag=VBN
     80: postag=VBN
     81: -1postag=VBN
     82: modifierType=PP-MOD
     83: +1:word.lower=almost
     84: -1modifierType=PP-MOD
     85: lemma=other
     86: -1:word.lower=any
     87: -1lemma=other
     88: +1lemma=other
     89: +1:word.lower=in
     90: word.lower=in
     91: lemma=in
     92: -1lemma=in
     93: +1lemma=in
     94: +1:word.lower=mr.
     95: -1:word.lower=mr.
     96: +1:word.lower=said
     97: lemma=say
     98: -1lemma=said
     99: -1postag=WP
    100: +1modifierType=PREVERB-MOD
    101: modifierType=PREVERB-MOD
    102: +1:word.lower=changes
    103: -1modifierType=PREVERB-MOD
    104: +1:word.lower=is
    105: word.lower=is
    106: -1lemma=is
    107: +1:word.lower=effect
    108: +1postag=PRP
    109: -1:word.lower=they
    110: -1postag=PRP
    111: word.lower=have
    112: -1lemma=have
    113: -1:word.lower=ability
    114: +1:word.lower=``
    115: +1postag=``
    116: -1:word.lower=``
    117: +1:word.lower=''
    118: +1postag=''
    119: +1:word.lower=of
    120: word.lower=of
    121: lemma=of
    122: -1:word.lower=''
    123: -1lemma=of
    124: +1lemma=of
    125: word.lower=trading
    126: -1lemma=trading
    127: +1lemma=trading
    128: +1:word.lower=--
    129: +1postag=:
    130: -1postag=:
    131: -1:word.lower=selling
    132: +1postag=RBR
    133: +1:word.lower=one
    134: +1postag=CD
    135: word.lower=officer
    136: lemma=officer
    137: -1postag=CD
    138: -1lemma=officer
    139: +1lemma=officer
    140: -1:word.lower=officer
    141: word.lower=within
    142: lemma=within
    143: -1:word.lower=director
    144: -1lemma=within
    145: +1:word.lower=a
    146: +1lemma=within
    147: lemma=a
    148: +1:word.lower=short
    149: -1:word.lower=a
    150: -1:word.lower=time
    151: word.lower=new
    152: lemma=New
    153: +1lemma=New
    154: +1modifierType=APPOS-MOD
    155: modifierType=APPOS-MOD
    156: -1modifierType=APPOS-MOD
    157: +1:word.lower=biotechnology
    158: +1:word.lower=-
    159: +1postag=HYPH
    160: +1:word.lower=takeover
    161: -1:word.lower=-
    162: -1postag=HYPH
    163: lemma=plan
    164: lemma=give
    165: -1:word.lower=giving
    166: -1:word.lower=right
    167: +1:word.lower=purchase
    168: +1:word.lower=shares
    169: -1:word.lower=shares
    170: -1lemma=half
    171: +1lemma=half
    172: word.lower=under
    173: lemma=under
    174: -1lemma=under
    175: +1lemma=under
    176: +1:word.lower=37
    177: word.lower=old
    178: lemma=old
    179: -1lemma=old
    180: +1lemma=old
    181: modifierType=PREADJ-MOD
    182: -1:word.lower=senior
    183: -1modifierType=PREADJ-MOD
    184: +1:word.lower=president
    185: word.lower=president
    186: lemma=president
    187: -1lemma=president
    188: +1lemma=president
    189: -1:word.lower=president
    190: -1:word.lower=printing
    191: -1:word.lower=concern
    192: +1:word.lower=was
    193: +1:word.lower=its
    194: +1:word.lower=new
    195: -1:word.lower=position
    196: -1:word.lower=his
    197: word.lower=that
    198: lemma=that
    199: -1lemma=that
    200: +1lemma=that
    201: -1:word.lower=that
    202: -1:word.lower='s
    203: -1:word.lower=he
    204: +1:word.lower=from
    205: word.lower=from
    206: lemma=from
    207: -1lemma=from
    208: +1lemma=from
    209: +1:word.lower=pieces
    210: +1postag=JJR
    211: postag=JJR
    212: -1postag=WDT
    213: -1:word.lower=sounds
    214: word.lower=with
    215: lemma=with
    216: -1lemma=with
    217: +1:word.lower=pictures
    218: +1lemma=with
    219: word.lower=for
    220: lemma=for
    221: -1lemma=for
    222: +1lemma=for
    223: -1:word.lower=several
    224: +1:word.lower=continue
    225: lemma=continue
    226: -1:word.lower=including
    227: word.lower=economic
    228: -1:word.lower=order
    229: -1:word.lower=which
    230: +1:word.lower=pay
    231: +1:word.lower=world
    232: -1:word.lower=world
    233: word.lower=against
    234: lemma=against
    235: -1lemma=against
    236: +1lemma=against
    237: +1:word.lower=press
    238: -1:word.lower=block
    239: -1:word.lower=now
    240: -1lemma=holding
    241: +1lemma=holding
    242: word.lower=next
    243: lemma=next
    244: -1lemma=next
    245: +1lemma=next
    246: +1:word.isupper=True
    247: +1:word.lower=last
    248: word.lower=last
    249: lemma=raise
    250: -1:word.lower=funds
    251: -1postag=RP
    252: -1:word.lower=century
    253: +1:word.lower=chateau
    254: word.lower=owns
    255: -1:word.lower=somehow
    256: -1lemma=owns
    257: +1lemma=owns
    258: +1:word.lower=then
    259: -1:word.lower=few
    260: -1:word.lower=produce
    261: word.lower=only
    262: lemma=only
    263: -1lemma=only
    264: +1lemma=only
    265: +1:word.lower=japan
    266: +1:word.lower=financial
    267: word.lower=financial
    268: lemma=financial
    269: -1lemma=financial
    270: +1lemma=financial
    271: -1:word.lower=financial
    272: -1:word.lower=institutions
    273: word.lower=enormous
    274: lemma=enormous
    275: -1lemma=enormous
    276: +1:word.lower=clout
    277: +1lemma=enormous
    278: -1:word.lower=another
    279: word.lower=unprecedented
    280: lemma=unprecedented
    281: -1lemma=unprecedented
    282: +1:word.lower=public
    283: +1lemma=unprecedented
    284: word.lower=public
    285: lemma=public
    286: -1lemma=public
    287: +1lemma=public
    288: lemma=show
    289: -1:word.lower=power
    290: +1:word.lower=cash
    291: +1:word.lower=banks
    292: word.lower=raising
    293: -1lemma=raising
    294: +1lemma=raising
    295: word.lower=rising
    296: lemma=rise
    297: +1lemma=rising
    298: word.lower=recent
    299: lemma=recent
    300: -1lemma=recent
    301: +1lemma=recent
    302: word.lower=strict
    303: lemma=strict
    304: -1lemma=strict
    305: +1:word.lower=barriers
    306: +1lemma=strict
    307: -1:word.lower=two
    308: +1:word.lower=each
    309: -1:word.lower=boys
    310: +1:word.lower=summers
    311: +1:word.lower=season
    312: lemma=begin
    313: +1:word.lower=like
    314: +1:word.lower=workout
    315: word.lower=great
    316: -1:word.lower=man
    317: lemma=make
    318: +1:word.lower=appearance
    319: lemma=third
    320: -1lemma=third
    321: +1lemma=third
    322: -1:word.lower=innings
    323: +1:word.lower=him
    324: +1:word.lower=back
    325: lemma=back
    326: -1:word.lower=year
    327: lemma=offer
    328: word.lower=stopper
    329: lemma=stopper
    330: -1lemma=stopper
    331: +1lemma=stopper
    332: -1:word.lower=stopper
    333: +1:word.lower=cincinnati
    334: word.lower=big
    335: +1:word.lower=men
    336: word.lower=former
    337: lemma=former
    338: -1lemma=former
    339: +1lemma=former
    340: word.lower=second
    341: lemma=second
    342: -1lemma=second
    343: +1lemma=second
    344: +1:word.lower=as
    345: word.lower=as
    346: word.lower=fat
    347: lemma=fat
    348: -1lemma=fat
    349: +1:word.lower=sound
    350: +1lemma=fat
    351: lemma=bounce
    352: word.lower=federal
    353: -1:word.lower=%
    354: +1:word.lower=low
    355: -1:word.lower=low
    356: +1:word.lower=bid
    357: -1:word.lower=bid
    358: word.lower=offered
    359: -1lemma=offered
    360: +1lemma=offered
    361: word.lower=unsecured
    362: lemma=unsecured
    363: -1:word.lower=grade
    364: -1lemma=unsecured
    365: +1lemma=unsecured
    366: -1:word.lower=notes
    367: +1:word.lower=$
    368: +1postag=$
    369: +1:word.lower=30
    370: lemma=day
    371: -1lemma=day
    372: +1lemma=day
    373: +1:word.lower=industry
    374: -1:word.lower=industry
    375: +1:word.lower=august
    376: +1:word.lower=july
    377: word.lower=industrial
    378: lemma=industrial
    379: -1lemma=industrial
    380: +1lemma=industrial
    381: +1:word.lower=0.2
    382: +1:word.lower=september
    383: word.lower=third
    384: word.lower=monthly
    385: lemma=monthly
    386: -1lemma=monthly
    387: +1lemma=monthly
    388: -1:word.lower=also
    389: -1:word.lower=people
    390: +1:word.lower=buy
    391: +1lemma=as
    392: +1:word.lower=10
    393: -1:word.lower=million
    394: word.lower=ridley
    395: lemma=Ridley
    396: -1:word.lower=nicholas
    397: -1lemma=Ridley
    398: +1lemma=Ridley
    399: -1:word.lower=house
    400: word.lower=called
    401: -1lemma=called
    402: +1lemma=called
    403: -1:word.lower=share
    404: +1:word.lower=company
    405: +1:word.lower=u.s.
    406: +1:word.lower=market
    407: -1:word.lower=market
    408: lemma=trade
    409: +1:word.lower=up
    410: lemma=move
    411: -1:word.lower=initial
    412: -1:word.lower=offer
    413: +1:word.lower=(
    414: +1postag=(
    415: word.lower=(
    416: postag=(
    417: lemma=(
    418: -1lemma=(
    419: +1lemma=(
    420: -1:word.lower=(
    421: -1postag=(
    422: +1postag=)
    423: lemma=take
    424: lemma=represent
    425: word.lower=voting
    426: lemma=vote
    427: -1lemma=voting
    428: +1lemma=voting
    429: word.lower=special
    430: lemma=special
    431: -1lemma=special
    432: +1lemma=special
    433: lemma=large
    434: word.lower=british
    435: lemma=British
    436: -1lemma=British
    437: +1lemma=British
    438: -1:word.lower=plans
    439: -1lemma=want
    440: +1lemma=want
    441: +1:word.lower=stake
    442: -1:word.lower=stake
    443: -1:word.lower=no
    444: -1:word.lower=university
    445: -1:word.lower=chairman
    446: +1:word.lower=chief
    447: word.lower=manager
    448: -1:word.lower=manager
    449: +1:word.lower=three
    450: word.lower=domestic
    451: lemma=domestic
    452: -1lemma=domestic
    453: +1lemma=domestic
    454: -1:word.lower=interest
    455: -1:word.lower=anticipation
    456: +1:word.lower=inflation
    457: -1:word.lower=dealer
    458: -1:word.lower=makers
    459: word.lower=based
    460: lemma=base
    461: -1lemma=based
    462: +1lemma=based
    463: -1:word.lower=hour
    464: word.lower=modest
    465: lemma=modest
    466: -1lemma=modest
    467: +1lemma=modest
    468: word.lower=monday
    469: lemma=Monday
    470: -1lemma=Monday
    471: +1lemma=Monday
    472: word.lower=day
    473: lemma=lead
    474: +1:word.lower=above
    475: word.lower=above
    476: lemma=above
    477: -1lemma=above
    478: +1lemma=above
    479: word.lower=since
    480: lemma=since
    481: -1lemma=since
    482: +1lemma=since
    483: word.lower=among
    484: lemma=among
    485: -1lemma=among
    486: +1lemma=among
    487: word.lower=sharp
    488: lemma=sharp
    489: -1lemma=sharp
    490: +1lemma=sharp
    491: +1:word.lower=bank
    492: -1:word.lower=yields
    493: word.lower=halfhearted
    494: lemma=halfhearted
    495: -1lemma=halfhearted
    496: +1:word.lower=attempt
    497: +1lemma=halfhearted
    498: -1:word.lower=attempt
    499: +1:word.lower=introduce
    500: -1:word.lower=bit
    501: +1:word.lower=les
    502: -1:word.lower=balloon
    503: word.lower=held
    504: +1lemma=held
    505: +1:word.lower=convocation
    506: -1:word.lower=largest
    507: -1:word.lower=convocation
    508: +1:word.lower=ersatz
    509: +1:word.lower=albuquerque
    510: word.lower=fiesta
    511: lemma=Fiesta
    512: -1lemma=Fiesta
    513: +1lemma=Fiesta
    514: +1:word.lower=12
    515: -1:word.lower=inches
    516: word.lower=fed
    517: word.lower=down
    518: lemma=down
    519: -1lemma=down
    520: +1lemma=down
    521: word.lower=smaller
    522: lemma=small
    523: -1lemma=smaller
    524: +1lemma=smaller
    525: +1:word.lower=do
    526: -1:word.lower=staffs
    527: word.lower=quick
    528: lemma=quick
    529: -1lemma=quick
    530: +1lemma=quick
    531: word.lower=complex
    532: lemma=complex
    533: -1lemma=complex
    534: +1:word.lower=arms
    535: +1lemma=complex
    536: +1:word.lower=control
    537: +1:word.lower=solely
    538: lemma=develop
    539: -1:word.lower=developing
    540: -1:word.lower=value
    541: -1:word.lower=transactions
    542: +1:word.lower=but
    543: word.lower=between
    544: lemma=between
    545: -1lemma=between
    546: +1lemma=between
    547: -1:word.lower=head
    548: word.lower=congressional
    549: -1:word.lower=opening
    550: -1:word.lower=assistant
    551: lemma=economic
    552: -1lemma=economic
    553: +1lemma=economic
    554: -1:word.lower=elections
    555: word.lower=moving
    556: +1lemma=moving
    557: -1:word.lower=tax
    558: -1:word.lower=billion
    559: -1:word.lower=threat
    560: +1:word.lower=business
    561: word.lower=total
    562: -1lemma=total
    563: +1lemma=total
    564: word.lower=forecasting
    565: lemma=forecast
    566: -1lemma=forecasting
    567: +1:word.lower=gauge
    568: +1lemma=forecasting
    569: +1:word.lower=economy
    570: -1:word.lower=economy
    571: +1:word.lower=slowing
    572: word.lower=small
    573: -1:word.lower=support
    574: word.lower=imaginative
    575: lemma=imaginative
    576: -1lemma=imaginative
    577: +1lemma=imaginative
    578: word.lower=popular
    579: lemma=popular
    580: -1lemma=popular
    581: +1lemma=popular
    582: word.lower=electronic
    583: lemma=electronic
    584: -1lemma=electronic
    585: +1lemma=electronic
    586: -1:word.lower=program
    587: +1:word.lower=used
    588: word.lower=created
    589: lemma=create
    590: -1lemma=created
    591: +1lemma=created
    592: word.lower=cleans
    593: lemma=clean
    594: -1:word.lower=routinely
    595: -1lemma=cleans
    596: +1lemma=clean
    597: word.lower=military
    598: lemma=military
    599: -1lemma=military
    600: +1lemma=military
    601: word.lower=national
    602: lemma=national
    603: -1lemma=national
    604: +1lemma=national
    605: word.lower=calling
    606: -1lemma=calling
    607: +1lemma=calling
    608: word.lower=own
    609: -1lemma=own
    610: +1lemma=own
    611: -1:word.lower=own
    612: -1:word.lower=analyst
    613: +1:word.lower=machines
    614: -1:word.lower=machines
    615: +1:word.lower=research
    616: -1:word.lower=firm
    617: +1:word.lower=revenue
    618: -1lemma=big
    619: +1lemma=big
    620: word.lower=risc
    621: lemma=RISC
    622: -1lemma=RISC
    623: +1lemma=RISC
    624: +1:word.lower=deficit
    625: -1:word.lower=targets
    626: -1:word.lower=law
    627: -1:word.lower=assets
    628: +1:word.lower=sick
    629: word.lower=sympathetic
    630: lemma=sympathetic
    631: -1lemma=sympathetic
    632: +1:word.lower=fans
    633: +1lemma=sympathetic
    634: word.lower=ousted
    635: lemma=oust
    636: -1lemma=ousted
    637: +1:word.lower=directors
    638: +1lemma=ousted
    639: -1:word.lower=james
    640: -1:word.lower=operations
    641: -1:word.lower=payments
    642: lemma=complete
    643: word.lower=completed
    644: -1lemma=completed
    645: +1lemma=completed
    646: +1:word.lower=warrants
    647: word.lower=court
    648: -1:word.lower=court
    649: word.lower=crossed
    650: lemma=cross
    651: -1lemma=crossed
    652: +1lemma=crossed
    653: +1:word.lower=cambria
    654: +1:word.lower=jailed
    655: -1:word.lower=jailed
    656: +1:word.lower=members
    657: -1:word.lower=members
    658: +1:word.lower=several
    659: word.lower=after
    660: lemma=after
    661: -1lemma=after
    662: +1lemma=after
    663: +1:word.lower=extend
    664: -1:word.lower=john
    665: -1:word.lower=association
    666: word.lower=attorney
    667: lemma=attorney
    668: -1lemma=attorney
    669: +1lemma=attorney
    670: -1:word.lower=attorney
    671: word.lower=unrelated
    672: lemma=unrelated
    673: -1lemma=unrelated
    674: +1:word.lower=investigation
    675: +1lemma=unrelated
    676: -1:word.lower=investigation
    677: +1:word.lower=corruption
    678: word.lower=caused
    679: lemma=cause
    680: -1lemma=caused
    681: +1lemma=caused
    682: word.lower=common
    683: lemma=common
    684: -1lemma=common
    685: +1lemma=common
    686: modifierType=POSTADJ-MOD
    687: +1:word.lower=nov.
    688: -1:word.lower=if
    689: word.lower=planned
    690: +1lemma=planned
    691: -1:word.lower=rate
    692: +1:word.lower=losses
    693: word.lower=principal
    694: lemma=principal
    695: -1lemma=principal
    696: +1lemma=principal
    697: +1:word.lower=credit
    698: word.lower=backed
    699: -1lemma=backed
    700: +1lemma=backed
    701: word.lower=final
    702: lemma=final
    703: -1lemma=final
    704: +1lemma=final
    705: +1:word.lower=priced
    706: -1:word.lower=coupon
    707: -1:word.lower=bond
    708: word.lower=subsidiary
    709: lemma=subsidiary
    710: -1lemma=subsidiary
    711: +1lemma=subsidiary
    712: -1lemma=held
    713: -1:word.lower=sale
    714: -1:word.lower=obstacle
    715: lemma=Court
    716: -1lemma=Court
    717: +1lemma=Court
    718: +1:word.lower=oil
    719: +1:word.lower=gas
    720: word.lower=issued
    721: -1lemma=issued
    722: +1lemma=issued
    723: +1:word.lower=fannie
    724: +1:word.lower=japanese
    725: word.lower=japanese
    726: lemma=Japanese
    727: -1lemma=Japanese
    728: +1lemma=Japanese
    729: -1:word.lower=japanese
    730: word.lower=steady
    731: lemma=steady
    732: -1lemma=steady
    733: +1lemma=steady
    734: word.lower=institutional
    735: lemma=institutional
    736: -1lemma=institutional
    737: +1lemma=institutional
    738: +1:word.lower=northern
    739: +1:word.lower=nekoosa
    740: word.lower=specific
    741: lemma=specific
    742: -1lemma=specific
    743: +1lemma=specific
    744: +1:word.lower=failed
    745: -1:word.lower=filed
    746: +1:word.lower=lawsuits
    747: -1:word.lower=lawsuits
    748: -1:word.lower=controls
    749: word.lower=pettit
    750: lemma=Pettit
    751: -1:word.lower=raymond
    752: -1lemma=Pettit
    753: +1lemma=Pettit
    754: +1:word.lower=rockefeller
    755: word.lower=foreign
    756: -1:word.lower=superior
    757: -1:word.lower=hearing
    758: +1:word.lower=taking
    759: lemma=top
    760: -1:word.lower=contract
    761: word.lower=sworn
    762: lemma=swear
    763: -1lemma=sworn
    764: +1lemma=sworn
    765: word.lower=legal
    766: lemma=legal
    767: -1lemma=legal
    768: +1lemma=legal
    769: lemma=federal
    770: -1lemma=federal
    771: +1lemma=federal
    772: word.lower=controversial
    773: lemma=controversial
    774: -1lemma=controversial
    775: +1lemma=controversial
    776: +1:word.lower=brand
    777: -1:word.lower=marketers
    778: +1:word.lower=faux
    779: -1:word.lower=department
    780: -1:word.lower=isikoff
    781: +1:word.lower=less
    782: -1:word.lower=blessing
    783: -1lemma=build
    784: +1lemma=build
    785: word.lower=praising
    786: lemma=praise
    787: -1:word.lower=chapman
    788: -1lemma=praising
    789: +1lemma=praise
    790: +1:word.lower=leader
    791: -1:word.lower=nelson
    792: word.lower=joint
    793: lemma=joint
    794: -1lemma=joint
    795: +1lemma=joint
    796: -1:word.lower=clients
    797: -1:word.lower=rehearing
    798: -1:word.lower=female
    799: -1:word.lower=acquisition
    800: +1:word.lower=compete
    801: -1:word.lower=`
    802: word.lower=let
    803: lemma=let
    804: -1lemma=let
    805: +1lemma=let
    806: word.lower=oberstar
    807: lemma=Oberstar
    808: -1lemma=Oberstar
    809: +1lemma=Oberstar
    810: word.lower=undesirable
    811: lemma=undesirable
    812: -1lemma=undesirable
    813: +1:word.lower=deals
    814: +1lemma=undesirable
    815: lemma=help
    816: +1lemma=help
    817: -1:word.lower=loss
    818: +1:word.lower=june
    819: word.lower=due
    820: lemma=due
    821: -1lemma=due
    822: +1lemma=due
    823: -1:word.lower=consider
    824: +1:word.lower=designer
    825: word.lower=styled
    826: lemma=style
    827: -1:word.lower=clocks
    828: -1lemma=styled
    829: +1lemma=styled
    830: -1:word.lower=tennessee
    831: word.lower=organizing
    832: lemma=organize
    833: -1lemma=organizing
    834: +1:word.lower=effort
    835: +1lemma=organizing
    836: +1:word.lower=seaborne
    837: -1:word.lower=diversion
    838: -1:word.lower=force
    839: word.lower=western
    840: lemma=Western
    841: +1lemma=Western
    842: -1:word.lower=opportunity
    843: +1:word.lower=organization
    844: word.lower=civil
    845: lemma=civil
    846: -1:word.lower=violent
    847: -1lemma=civil
    848: +1:word.lower=disobedience
    849: +1lemma=civil
    850: +1:word.lower=get
    851: -1:word.lower=remarks
    852: +1:word.lower=lawful
    853: +1:word.lower=use
    854: +1:word.lower=protest
    855: word.lower=hypothesized
    856: lemma=hypothesize
    857: -1:word.lower=situation
    858: -1lemma=hypothesized
    859: +1lemma=hypothesized
    860: word.lower=urged
    861: lemma=urge
    862: -1lemma=urged
    863: +1lemma=urged
    864: -1lemma=great
    865: +1:word.lower=help
    866: +1lemma=great
    867: -1lemma=help
    868: word.lower=increasing
    869: -1lemma=increasing
    870: +1:word.lower=ballot
    871: +1lemma=increasing
    872: word.lower=intensive
    873: -1:word.lower=audits
    874: +1:word.lower=deterrents
    875: word.lower=developed
    876: -1lemma=developed
    877: +1lemma=developed
    878: word.lower=mixed
    879: lemma=mixed
    880: -1lemma=mixed
    881: +1lemma=mixed
    882: -1:word.lower=presence
    883: word.lower=enables
    884: lemma=enable
    885: -1lemma=enables
    886: +1lemma=enables
    887: word.lower=levy
    888: lemma=Levy
    889: -1:word.lower=walter
    890: -1lemma=Levy
    891: +1lemma=Levy
    892: word.lower=thin
    893: lemma=thin
    894: -1lemma=thin
    895: +1:word.lower=films
    896: +1lemma=thin
    897: +1:word.lower=superconductors
    898: -1:word.lower=companies
    899: +1:word.lower=programs
    900: -1:word.lower=programs
    901: -1:word.lower=costs
    902: +1:word.lower=commercializing
    903: -1:word.lower=commercializing
    904: +1:word.lower=efforts
    905: -1:word.lower=efforts
    906: word.lower=charge
    907: lemma=charge
    908: -1lemma=charge
    909: +1lemma=charge
    910: lemma=feed
    911: -1:word.lower=knocking
    912: -1lemma=feed
    913: +1lemma=fed
    914: +1:word.lower=continuing
    915: -1:word.lower=chemical
    916: -1:word.lower=quarter
    917: -1:word.lower=often
    918: word.lower=encountered
    919: lemma=encounter
    920: -1:word.lower=wathen
    921: -1lemma=encountered
    922: +1lemma=encountered
    923: +1:word.lower=pinkerton
    924: word.lower=overhead
    925: lemma=overhead
    926: -1:word.lower=slashing
    927: -1lemma=overhead
    928: +1lemma=overhead
    929: +1:word.lower=average
    930: -1:word.lower=failure
    931: +1:word.lower=surrender
    932: lemma=surrender
    933: -1:word.lower=damaged
    934: word.lower=valuable
    935: lemma=valuable
    936: -1lemma=valuable
    937: +1:word.lower=artifact
    938: +1lemma=valuable
    939: -1:word.lower=currently
    940: +1:word.lower=tender
    941: +1:word.lower=hud
    942: +1:word.lower=start
    943: lemma=start
    944: word.lower=wide
    945: lemma=wide
    946: -1lemma=wide
    947: +1lemma=wide
    948: -1lemma=Soviet
    949: word.lower=halves
    950: lemma=halve
    951: word.lower=huge
    952: lemma=huge
    953: -1lemma=huge
    954: +1lemma=huge
    955: +1:word.lower=defense
    956: -1:word.lower=defense
    957: +1:word.lower=profit
    958: +1:word.lower=20
    959: +1:word.lower=employee
    960: +1:word.lower=health
    961: +1:word.lower=measure
    962: +1:word.lower=facility
    963: +1:word.lower=600
    964: word.lower=laidig
    965: lemma=Laidig
    966: -1lemma=Laidig
    967: +1lemma=Laidig
    968: +1:word.lower=course
    969: +1:word.lower=shaping
    970: +1:word.lower=mesa
    971: word.lower=diversified
    972: lemma=diversify
    973: -1lemma=diversified
    974: +1:word.lower=construction
    975: +1lemma=diversified
    976: +1:word.lower=maxwell
    977: +1:word.lower=miller
    978: -1:word.lower=partner
    979: +1:word.lower=issues
    980: lemma=Other
    981: +1lemma=Other
    982: -1:word.lower=partnership
    983: word.lower=pending
    984: lemma=pending
    985: -1lemma=pending
    986: +1lemma=pending
    987: +1:word.lower=dollars
    988: word.lower=funneled
    989: lemma=funnel
    990: -1:word.lower=dollars
    991: -1lemma=funneled
    992: +1lemma=funneled
    993: word.lower=meek
    994: lemma=Meek
    995: -1lemma=Meek
    996: +1lemma=Meek
    997: -1:word.lower=drew
    998: word.lower=reckless
    999: lemma=reckless
   1000: -1lemma=reckless
   1001: +1lemma=reckless
   1002: +1:word.lower=flat
   1003: +1:word.lower=cutting
   1004: +1:word.lower=catastrophic
   1005: -1:word.lower=alternatives
   1006: +1:word.lower=net
   1007: word.lower=net
   1008: lemma=net
   1009: -1lemma=net
   1010: +1lemma=net
   1011: -1:word.lower=traders
   1012: +1:word.lower=informal
   1013: word.lower=informal
   1014: lemma=informal
   1015: -1lemma=informal
   1016: +1lemma=informal
   1017: word.lower=substantial
   1018: lemma=substantial
   1019: -1lemma=substantial
   1020: +1lemma=substantial
   1021: +1:word.lower=solid
   1022: +1:word.lower=traders
   1023: lemma=coming
   1024: -1:word.lower=responses
   1025: +1:word.lower=role
   1026: -1:word.lower=role
   1027: -1:word.lower=fines
   1028: +1:word.lower=political
   1029: word.lower=political
   1030: lemma=political
   1031: -1lemma=political
   1032: +1lemma=political
   1033: lemma=Municipal
   1034: +1lemma=Municipal
   1035: +1:word.lower=necessary
   1036: +1:word.lower=1998
   1037: -1:word.lower=vote
   1038: +1:word.lower=development
   1039: word.lower=surrendered
   1040: -1lemma=surrendered
   1041: +1lemma=surrendered
   1042: +1:word.lower=criticism
   1043: word.lower=misleading
   1044: lemma=mislead
   1045: -1lemma=misleading
   1046: +1:word.lower=expression
   1047: +1lemma=misleading
   1048: word.lower=deceptive
   1049: lemma=deceptive
   1050: -1lemma=deceptive
   1051: +1:word.lower=advertising
   1052: +1lemma=deceptive
   1053: -1:word.lower=advertising
   1054: -1:word.lower=reservoirs
   1055: word.lower=massive
   1056: lemma=massive
   1057: -1lemma=massive
   1058: +1:word.lower=vested
   1059: +1lemma=massive
   1060: word.lower=vested
   1061: lemma=vest
   1062: -1:word.lower=massive
   1063: -1lemma=vested
   1064: +1lemma=vested
   1065: word.lower=private
   1066: lemma=private
   1067: -1lemma=private
   1068: +1lemma=private
   1069: -1:word.lower=gathering
   1070: word.lower=sophisticated
   1071: lemma=sophisticated
   1072: -1lemma=sophisticated
   1073: +1lemma=sophisticated
   1074: -1lemma=moving
   1075: word.lower=traditional
   1076: word.lower=different
   1077: lemma=different
   1078: -1:word.lower=substantially
   1079: -1lemma=different
   1080: +1lemma=different
   1081: word.lower=entrepreneurial
   1082: lemma=entrepreneurial
   1083: -1lemma=entrepreneurial
   1084: +1lemma=entrepreneurial
   1085: word.lower=additional
   1086: lemma=additional
   1087: -1lemma=additional
   1088: +1lemma=additional
   1089: +1:word.lower=225
   1090: +1:word.lower=agreement
   1091: -1:word.lower=agreement
   1092: +1:word.lower=9.125
   1093: +1:word.lower=authority
   1094: -1:word.lower=authority
   1095: word.lower=secured
   1096: lemma=secure
   1097: -1lemma=secured
   1098: +1lemma=secured
   1099: +1:word.lower=cross
   1100: word.lower=temporary
   1101: lemma=temporary
   1102: -1lemma=temporary
   1103: +1lemma=temporary
   1104: -1:word.lower=patent
   1105: word.lower=helps
   1106: +1:word.lower=detect
   1107: word.lower=genetic
   1108: lemma=genetic
   1109: -1lemma=genetic
   1110: +1lemma=genetic
   1111: -1:word.lower=far
   1112: -1:word.lower=rather
   1113: word.lower=showing
   1114: -1:word.lower=dials
   1115: -1lemma=showing
   1116: +1lemma=showing
   1117: -1:word.lower=showing
   1118: -1:word.lower=student
   1119: +1:word.lower=pasadena
   1120: word.lower=sacred
   1121: lemma=sacred
   1122: -1lemma=sacred
   1123: +1lemma=sacred
   1124: -1:word.lower=study
   1125: +1:word.lower=retailers
   1126: word.lower=flying
   1127: lemma=fly
   1128: -1lemma=flying
   1129: +1:word.lower=cats
   1130: +1lemma=flying
   1131: word.lower=earned
   1132: lemma=earn
   1133: -1:word.lower=usually
   1134: -1lemma=earned
   1135: +1lemma=earned
   1136: word.lower=ailing
   1137: lemma=ail
   1138: -1lemma=ailing
   1139: +1:word.lower=detroit
   1140: +1lemma=ailing
   1141: +1:word.lower=sherwin-williams
   1142: -1:word.lower=produces
   1143: +1:word.lower=coatings
   1144: +1:word.lower=whittaker
   1145: word.lower=reinvested
   1146: lemma=reinvested
   1147: -1lemma=reinvested
   1148: +1:word.lower=dividends
   1149: +1lemma=reinvested
   1150: lemma=Large
   1151: +1lemma=Large
   1152: -1:word.lower=nothing
   1153: word.lower=cheney
   1154: lemma=Cheney
   1155: -1lemma=Cheney
   1156: +1lemma=Cheney
   1157: +1:word.lower=euphoria
   1158: word.lower=democratic
   1159: lemma=Democratic
   1160: -1lemma=Democratic
   1161: +1:word.lower=leadership
   1162: +1lemma=Democratic
   1163: word.lower=aggravating
   1164: lemma=aggravate
   1165: -1lemma=aggravating
   1166: +1lemma=aggravating
   1167: word.lower=punishable
   1168: lemma=punishable
   1169: -1:word.lower=crimes
   1170: -1lemma=punishable
   1171: +1lemma=punishable
   1172: +1:word.lower=murder
   1173: word.lower=ironic
   1174: lemma=ironic
   1175: -1lemma=ironic
   1176: +1lemma=ironic
   1177: word.lower=realistic
   1178: lemma=realistic
   1179: -1:word.lower=considers
   1180: -1lemma=realistic
   1181: +1:word.lower=projections
   1182: +1lemma=realistic
   1183: -1:word.lower=operates
   1184: -1:word.lower=receivable
   1185: -1:word.lower=copper
   1186: +1:word.lower=alliance
   1187: +1:word.lower=standard
   1188: -1:word.lower=quotations
   1189: -1:word.lower=various
   1190: word.lower=chose
   1191: -1lemma=chose
   1192: +1lemma=chose
   1193: word.lower=aired
   1194: lemma=air
   1195: -1lemma=aired
   1196: +1lemma=aired
   1197: +1:word.lower=futures
   1198: word.lower=overseeing
   1199: -1:word.lower=bureaucracy
   1200: -1lemma=overseeing
   1201: +1lemma=overseeing
   1202: +1:word.lower=pc
   1203: +1:word.lower=nec
   1204: word.lower=nonprofit
   1205: lemma=nonprofit
   1206: -1lemma=nonprofit
   1207: +1lemma=nonprofit
   1208: +1:word.lower=malpractice
   1209: word.lower=greek
   1210: lemma=Greek
   1211: -1lemma=Greek
   1212: +1:word.lower=vase
   1213: +1lemma=Greek
   1214: -1:word.lower=benefits
   1215: word.lower=terminated
   1216: lemma=terminate
   1217: -1lemma=terminated
   1218: +1lemma=terminated
   1219: +1:word.lower=hitched
   1220: -1:word.lower=award
   1221: word.lower=numerous
   1222: lemma=numerous
   1223: -1lemma=numerous
   1224: +1:word.lower=latin
   1225: +1lemma=numerous
   1226: -1:word.lower=spain
   1227: +1:word.lower=delivery
   1228: +1:word.lower=par
   1229: -1:word.lower=robinson
   1230: +1:word.lower=hybrid
   1231: word.lower=reproductive
   1232: lemma=reproductive
   1233: -1lemma=reproductive
   1234: +1:word.lower=organs
   1235: +1lemma=reproductive
   1236: -1:word.lower=requisition
   1237: +1:word.lower=wins
   1238: -1:word.lower=calculations
   1239: +1:word.lower=floating
   1240: -1:word.lower=affiliate
   1241: -1:word.lower=amounts
   1242: +1:word.lower=equity
   1243: +1:word.lower=packaging
   1244: word.lower=alleging
   1245: -1lemma=alleging
   1246: +1lemma=alleging
   1247: word.lower=walking
   1248: lemma=Walking
   1249: -1lemma=Walking
   1250: +1:word.lower=horses
   1251: +1lemma=Walking
   1252: +1:word.lower=19,000
   1253: +1:word.lower=reorganization
   1254: -1:word.lower=announcer
   1255: word.lower=true
   1256: lemma=true
   1257: -1lemma=true
   1258: +1lemma=true
   1259: -1:word.lower=tumble
   1260: lemma=stem
   1261: +1:word.lower=calculating
   1262: word.lower=unpopular
   1263: lemma=unpopular
   1264: -1lemma=unpopular
   1265: +1lemma=unpopular
   1266: -1:word.lower=settlements
   1267: +1:word.lower=miniscribe
   1268: -1:word.lower=competition
   1269: +1:word.lower=7.88
   1270: +1:word.lower=91-23
   1271: word.lower=apparent
   1272: lemma=apparent
   1273: -1lemma=apparent
   1274: +1:word.lower=shrinkage
   1275: +1lemma=apparent
   1276: word.lower=skilled
   1277: lemma=SKILLED
   1278: +1lemma=SKILLED
   1279: lemma=Small
   1280: -1lemma=Small
   1281: +1lemma=Small
   1282: word.lower=stemming
   1283: -1lemma=stemming
   1284: +1lemma=stemming
   1285: +1:word.lower=outcome
   1286: -1:word.lower=stage
   1287: word.lower=governed
   1288: lemma=govern
   1289: -1lemma=governed
   1290: +1lemma=governed
   1291: word.lower=dedicated
   1292: lemma=dedicate
   1293: -1lemma=dedicated
   1294: +1lemma=dedicated
   1295: -1:word.lower=trips
   1296: word.lower=visit
   1297: lemma=visit
   1298: -1lemma=visit
   1299: +1lemma=visit
   1300: +1:word.lower=offsetting
   1301: -1:word.lower=injuries
   1302: +1:word.lower=deaths
}

TRANSITIONS = {
  (1) RESTR --> RESTR: 0.000307
  (1) RESTR --> NON-RESTR: -0.049605
  (1) NON-RESTR --> NON-RESTR: 0.690108
}

STATE_FEATURES = {
  (0) word.isupper=False --> RESTR: 0.138602
  (0) word.isupper=False --> NON-RESTR: -0.138602
  (0) word.istitle=True --> RESTR: 0.446203
  (0) word.istitle=True --> NON-RESTR: -0.446203
  (0) postag=NNS --> RESTR: -0.885450
  (0) postag=NNS --> NON-RESTR: 0.885450
  (0) modifierType=_ --> RESTR: 12.409188
  (0) +1:word.istitle=False --> RESTR: -0.512047
  (0) +1:word.istitle=False --> NON-RESTR: 0.512047
  (0) +1modifierType=_ --> RESTR: -0.347788
  (0) +1modifierType=_ --> NON-RESTR: 0.347788
  (0) word.istitle=False --> RESTR: -0.023459
  (0) word.istitle=False --> NON-RESTR: 0.023459
  (0) lemma=be --> RESTR: -0.238877
  (0) lemma=be --> NON-RESTR: 0.238877
  (0) -1:word.lower=investors --> RESTR: -0.211505
  (0) -1:word.lower=investors --> NON-RESTR: 0.211505
  (0) -1:word.isupper=False --> RESTR: 0.007460
  (0) -1:word.isupper=False --> NON-RESTR: -0.007460
  (0) -1:word.istitle=True --> RESTR: -0.002065
  (0) -1:word.istitle=True --> NON-RESTR: 0.002065
  (0) -1postag=NNS --> RESTR: 0.341558
  (0) -1postag=NNS --> NON-RESTR: -0.341558
  (0) -1modifierType=_ --> RESTR: -0.178231
  (0) -1modifierType=_ --> NON-RESTR: 0.178231
  (0) +1postag=VBG --> RESTR: -0.144271
  (0) +1postag=VBG --> NON-RESTR: 0.144271
  (0) postag=VBG --> RESTR: -0.145366
  (0) postag=VBG --> NON-RESTR: 0.145366
  (0) -1:word.istitle=False --> RESTR: 0.292378
  (0) -1:word.istitle=False --> NON-RESTR: -0.292378
  (0) -1postag=VBP --> RESTR: -0.147980
  (0) -1postag=VBP --> NON-RESTR: 0.147980
  (0) word.lower=to --> RESTR: 0.031664
  (0) word.lower=to --> NON-RESTR: -0.031664
  (0) postag=TO --> RESTR: 0.031600
  (0) postag=TO --> NON-RESTR: -0.031600
  (0) lemma=to --> RESTR: 0.031509
  (0) lemma=to --> NON-RESTR: -0.031509
  (0) -1postag=VBG --> RESTR: -0.031595
  (0) -1postag=VBG --> NON-RESTR: 0.031595
  (0) -1lemma=to --> RESTR: 0.031509
  (0) -1lemma=to --> NON-RESTR: -0.031509
  (0) +1:word.lower=the --> RESTR: 0.061370
  (0) +1:word.lower=the --> NON-RESTR: -0.061370
  (0) +1postag=DT --> RESTR: 0.018586
  (0) +1postag=DT --> NON-RESTR: -0.018586
  (0) -1:word.lower=to --> RESTR: 0.745007
  (0) -1postag=TO --> RESTR: 0.743815
  (0) +1:word.istitle=True --> RESTR: 0.053691
  (0) +1:word.istitle=True --> NON-RESTR: -0.053691
  (0) -1:word.lower=the --> RESTR: 0.279827
  (0) -1:word.lower=the --> NON-RESTR: -0.279827
  (0) +1:word.lower=and --> RESTR: 0.339955
  (0) +1:word.lower=and --> NON-RESTR: -0.339955
  (0) -1:word.lower=securities --> RESTR: 0.521893
  (0) -1:word.lower=securities --> NON-RESTR: -0.521893
  (0) +1postag=NNP --> RESTR: -0.679884
  (0) +1postag=NNP --> NON-RESTR: 0.679884
  (0) postag=NNP --> RESTR: 0.610747
  (0) postag=NNP --> NON-RESTR: -0.610747
  (0) -1postag=CC --> RESTR: 0.306750
  (0) -1postag=CC --> NON-RESTR: -0.306750
  (0) -1postag=NNP --> RESTR: -0.127919
  (0) -1postag=NNP --> NON-RESTR: 0.127919
  (0) +1:word.lower=not --> RESTR: 1.447384
  (0) postag=RB --> RESTR: -0.238613
  (0) postag=RB --> NON-RESTR: 0.238613
  (0) -1postag=RB --> RESTR: -0.022058
  (0) -1postag=RB --> NON-RESTR: 0.022058
  (0) +1:word.lower=their --> RESTR: 0.838803
  (0) -1postag=VB --> RESTR: -0.499608
  (0) -1postag=VB --> NON-RESTR: 0.499608
  (0) +1postag=NN --> RESTR: 0.067646
  (0) +1postag=NN --> NON-RESTR: -0.067646
  (0) postag=NN --> RESTR: -0.562073
  (0) postag=NN --> NON-RESTR: 0.562073
  (0) -1postag=NN --> RESTR: 0.416573
  (0) -1postag=NN --> NON-RESTR: -0.416573
  (0) +1:word.lower=information --> RESTR: -0.178193
  (0) +1:word.lower=information --> NON-RESTR: 0.178193
  (0) -1modifierType=INF-MOD --> RESTR: -0.721365
  (0) -1modifierType=INF-MOD --> NON-RESTR: 0.721365
  (0) +1:word.lower=about --> RESTR: -1.103277
  (0) +1:word.lower=about --> NON-RESTR: 1.103277
  (0) +1postag=IN --> RESTR: -0.016714
  (0) +1postag=IN --> NON-RESTR: 0.016714
  (0) postag=IN --> RESTR: 0.414483
  (0) postag=IN --> NON-RESTR: -0.414483
  (0) -1postag=IN --> RESTR: -0.032292
  (0) -1postag=IN --> NON-RESTR: 0.032292
  (0) +1postag=NNS --> RESTR: 0.268002
  (0) +1postag=NNS --> NON-RESTR: -0.268002
  (0) +1:word.lower=sales --> RESTR: -0.626188
  (0) +1:word.lower=sales --> NON-RESTR: 0.626188
  (0) word.lower=by --> RESTR: -0.174687
  (0) word.lower=by --> NON-RESTR: 0.174687
  (0) lemma=by --> RESTR: -0.170468
  (0) lemma=by --> NON-RESTR: 0.170468
  (0) -1:word.lower=sales --> RESTR: -0.171641
  (0) -1:word.lower=sales --> NON-RESTR: 0.171641
  (0) -1lemma=by --> RESTR: -0.170468
  (0) -1lemma=by --> NON-RESTR: 0.170468
  (0) +1postag=JJ --> RESTR: 0.009751
  (0) +1postag=JJ --> NON-RESTR: -0.009751
  (0) +1lemma=by --> RESTR: -0.170468
  (0) +1lemma=by --> NON-RESTR: 0.170468
  (0) word.lower=corporate --> RESTR: 0.497240
  (0) word.lower=corporate --> NON-RESTR: -0.497240
  (0) postag=JJ --> RESTR: -0.262343
  (0) postag=JJ --> NON-RESTR: 0.262343
  (0) +1:word.lower=insiders --> RESTR: 1.006898
  (0) -1postag=JJ --> RESTR: 0.196036
  (0) -1postag=JJ --> NON-RESTR: -0.196036
  (0) +1:word.lower=. --> RESTR: -0.017278
  (0) +1:word.lower=. --> NON-RESTR: 0.017278
  (0) +1postag=. --> RESTR: -0.017120
  (0) +1postag=. --> NON-RESTR: 0.017120
  (0) +1:word.lower=, --> RESTR: 0.225378
  (0) +1:word.lower=, --> NON-RESTR: -0.225378
  (0) +1postag=, --> RESTR: 0.224917
  (0) +1postag=, --> NON-RESTR: -0.224917
  (0) lemma=manager --> RESTR: 0.367779
  (0) -1lemma=manager --> RESTR: 0.367779
  (0) +1lemma=manager --> RESTR: 0.367779
  (0) postag=VBD --> RESTR: -0.038177
  (0) postag=VBD --> NON-RESTR: 0.038177
  (0) -1:word.lower=officials --> RESTR: -0.603076
  (0) -1:word.lower=officials --> NON-RESTR: 0.603076
  (0) +1lemma=had --> RESTR: 0.953506
  (0) +1lemma=had --> NON-RESTR: -0.953506
  (0) -1postag=VBD --> RESTR: 0.116464
  (0) -1postag=VBD --> NON-RESTR: -0.116464
  (0) word.lower=on --> RESTR: 0.087080
  (0) word.lower=on --> NON-RESTR: -0.087080
  (0) lemma=on --> RESTR: 0.041962
  (0) lemma=on --> NON-RESTR: -0.041962
  (0) -1:word.lower=comment --> RESTR: -0.580575
  (0) -1:word.lower=comment --> NON-RESTR: 0.580575
  (0) -1lemma=on --> RESTR: 0.041962
  (0) -1lemma=on --> NON-RESTR: -0.041962
  (0) +1lemma=on --> RESTR: 0.041962
  (0) +1lemma=on --> NON-RESTR: -0.041962
  (0) lemma=issue --> RESTR: 0.537701
  (0) word.lower=has --> RESTR: 0.100579
  (0) word.lower=has --> NON-RESTR: -0.100579
  (0) postag=VBZ --> RESTR: 0.050753
  (0) postag=VBZ --> NON-RESTR: -0.050753
  (0) +1postag=VBN --> RESTR: -0.265466
  (0) +1postag=VBN --> NON-RESTR: 0.265466
  (0) postag=VBN --> RESTR: -0.222897
  (0) postag=VBN --> NON-RESTR: 0.222897
  (0) -1postag=VBN --> RESTR: 0.189653
  (0) -1postag=VBN --> NON-RESTR: -0.189653
  (0) modifierType=PP-MOD --> RESTR: 0.154808
  (0) modifierType=PP-MOD --> NON-RESTR: -0.154808
  (0) +1:word.lower=almost --> RESTR: -1.215865
  (0) +1:word.lower=almost --> NON-RESTR: 1.215865
  (0) -1modifierType=PP-MOD --> RESTR: 0.127819
  (0) -1modifierType=PP-MOD --> NON-RESTR: -0.127819
  (0) lemma=other --> RESTR: -0.062473
  (0) lemma=other --> NON-RESTR: 0.062473
  (0) -1:word.lower=any --> RESTR: 1.119262
  (0) -1lemma=other --> RESTR: -0.062473
  (0) -1lemma=other --> NON-RESTR: 0.062473
  (0) +1lemma=other --> RESTR: -0.062473
  (0) +1lemma=other --> NON-RESTR: 0.062473
  (0) +1:word.lower=in --> RESTR: 0.170889
  (0) +1:word.lower=in --> NON-RESTR: -0.170889
  (0) word.lower=in --> RESTR: 0.014311
  (0) word.lower=in --> NON-RESTR: -0.014311
  (0) lemma=in --> RESTR: 0.065638
  (0) lemma=in --> NON-RESTR: -0.065638
  (0) -1lemma=in --> RESTR: 0.065638
  (0) -1lemma=in --> NON-RESTR: -0.065638
  (0) +1lemma=in --> RESTR: 0.065638
  (0) +1lemma=in --> NON-RESTR: -0.065638
  (0) +1:word.lower=mr. --> RESTR: 0.115433
  (0) +1:word.lower=mr. --> NON-RESTR: -0.115433
  (0) -1:word.lower=mr. --> RESTR: -0.084336
  (0) -1:word.lower=mr. --> NON-RESTR: 0.084336
  (0) +1:word.lower=said --> RESTR: -0.060141
  (0) +1:word.lower=said --> NON-RESTR: 0.060141
  (0) lemma=say --> RESTR: -0.388663
  (0) lemma=say --> NON-RESTR: 0.388663
  (0) -1lemma=said --> RESTR: -0.043978
  (0) -1lemma=said --> NON-RESTR: 0.043978
  (0) -1postag=WP --> RESTR: -0.240416
  (0) -1postag=WP --> NON-RESTR: 0.240416
  (0) +1modifierType=PREVERB-MOD --> RESTR: 1.152818
  (0) +1modifierType=PREVERB-MOD --> NON-RESTR: -1.152818
  (0) modifierType=PREVERB-MOD --> RESTR: -0.139802
  (0) modifierType=PREVERB-MOD --> NON-RESTR: 0.139802
  (0) +1:word.lower=changes --> RESTR: 1.021156
  (0) -1modifierType=PREVERB-MOD --> RESTR: 0.745013
  (0) -1modifierType=PREVERB-MOD --> NON-RESTR: -0.745013
  (0) +1:word.lower=is --> RESTR: -0.185642
  (0) +1:word.lower=is --> NON-RESTR: 0.185642
  (0) word.lower=is --> RESTR: 0.311414
  (0) word.lower=is --> NON-RESTR: -0.311414
  (0) -1lemma=is --> RESTR: 0.311337
  (0) -1lemma=is --> NON-RESTR: -0.311337
  (0) +1:word.lower=effect --> RESTR: -0.230002
  (0) +1:word.lower=effect --> NON-RESTR: 0.230002
  (0) +1postag=PRP --> RESTR: -0.949108
  (0) +1postag=PRP --> NON-RESTR: 0.949108
  (0) -1:word.lower=they --> RESTR: 3.558137
  (0) -1postag=PRP --> RESTR: -0.121834
  (0) -1postag=PRP --> NON-RESTR: 0.121834
  (0) word.lower=have --> RESTR: -0.179105
  (0) word.lower=have --> NON-RESTR: 0.179105
  (0) -1lemma=have --> RESTR: -0.179198
  (0) -1lemma=have --> NON-RESTR: 0.179198
  (0) -1:word.lower=ability --> RESTR: 0.054573
  (0) +1:word.lower=`` --> RESTR: -0.008006
  (0) +1:word.lower=`` --> NON-RESTR: 0.008006
  (0) +1postag=`` --> RESTR: -0.008132
  (0) +1postag=`` --> NON-RESTR: 0.008132
  (0) -1:word.lower=`` --> RESTR: -0.249242
  (0) -1:word.lower=`` --> NON-RESTR: 0.249242
  (0) +1:word.lower='' --> RESTR: 0.476861
  (0) +1:word.lower='' --> NON-RESTR: -0.476861
  (0) +1postag='' --> RESTR: 0.478867
  (0) +1postag='' --> NON-RESTR: -0.478867
  (0) +1:word.lower=of --> RESTR: -0.464287
  (0) +1:word.lower=of --> NON-RESTR: 0.464287
  (0) word.lower=of --> RESTR: 0.112901
  (0) word.lower=of --> NON-RESTR: -0.112901
  (0) lemma=of --> RESTR: 0.112901
  (0) lemma=of --> NON-RESTR: -0.112901
  (0) -1:word.lower='' --> RESTR: 0.434289
  (0) -1:word.lower='' --> NON-RESTR: -0.434289
  (0) -1lemma=of --> RESTR: 0.112901
  (0) -1lemma=of --> NON-RESTR: -0.112901
  (0) +1lemma=of --> RESTR: 0.112901
  (0) +1lemma=of --> NON-RESTR: -0.112901
  (0) word.lower=trading --> RESTR: 0.089446
  (0) word.lower=trading --> NON-RESTR: -0.089446
  (0) -1lemma=trading --> RESTR: 0.087284
  (0) -1lemma=trading --> NON-RESTR: -0.087284
  (0) +1lemma=trading --> RESTR: 0.087453
  (0) +1lemma=trading --> NON-RESTR: -0.087453
  (0) +1:word.lower=-- --> RESTR: 0.284548
  (0) +1postag=: --> RESTR: 0.696334
  (0) -1postag=: --> RESTR: 0.503794
  (0) -1postag=: --> NON-RESTR: -0.503794
  (0) -1:word.lower=selling --> RESTR: -0.171263
  (0) -1:word.lower=selling --> NON-RESTR: 0.171263
  (0) +1postag=RBR --> RESTR: -0.821495
  (0) +1postag=RBR --> NON-RESTR: 0.821495
  (0) +1:word.lower=one --> RESTR: -0.337811
  (0) +1:word.lower=one --> NON-RESTR: 0.337811
  (0) +1postag=CD --> RESTR: 0.158841
  (0) +1postag=CD --> NON-RESTR: -0.158841
  (0) word.lower=officer --> RESTR: 0.199971
  (0) lemma=officer --> RESTR: 0.222247
  (0) -1postag=CD --> RESTR: -0.575460
  (0) -1postag=CD --> NON-RESTR: 0.575460
  (0) -1lemma=officer --> RESTR: 0.195996
  (0) +1lemma=officer --> RESTR: 0.222247
  (0) -1:word.lower=officer --> RESTR: -0.909694
  (0) -1:word.lower=officer --> NON-RESTR: 0.909694
  (0) word.lower=within --> RESTR: 0.368908
  (0) lemma=within --> RESTR: 0.368762
  (0) -1:word.lower=director --> RESTR: -0.698075
  (0) -1:word.lower=director --> NON-RESTR: 0.698075
  (0) -1lemma=within --> RESTR: 0.368762
  (0) +1:word.lower=a --> RESTR: -0.448963
  (0) +1:word.lower=a --> NON-RESTR: 0.448963
  (0) +1lemma=within --> RESTR: 0.368762
  (0) lemma=a --> RESTR: -0.047796
  (0) lemma=a --> NON-RESTR: 0.047796
  (0) +1:word.lower=short --> RESTR: -0.097261
  (0) +1:word.lower=short --> NON-RESTR: 0.097261
  (0) -1:word.lower=a --> RESTR: 0.012480
  (0) -1:word.lower=a --> NON-RESTR: -0.012480
  (0) -1:word.lower=time --> RESTR: -0.577322
  (0) -1:word.lower=time --> NON-RESTR: 0.577322
  (0) word.lower=new --> RESTR: -0.464999
  (0) word.lower=new --> NON-RESTR: 0.464999
  (0) lemma=New --> RESTR: -0.122372
  (0) lemma=New --> NON-RESTR: 0.122372
  (0) +1lemma=New --> RESTR: -0.122372
  (0) +1lemma=New --> NON-RESTR: 0.122372
  (0) +1modifierType=APPOS-MOD --> RESTR: -0.187570
  (0) +1modifierType=APPOS-MOD --> NON-RESTR: 0.187570
  (0) modifierType=APPOS-MOD --> RESTR: -0.245574
  (0) modifierType=APPOS-MOD --> NON-RESTR: 0.245574
  (0) -1modifierType=APPOS-MOD --> RESTR: -0.172650
  (0) -1modifierType=APPOS-MOD --> NON-RESTR: 0.172650
  (0) +1:word.lower=biotechnology --> RESTR: -0.634868
  (0) +1:word.lower=biotechnology --> NON-RESTR: 0.634868
  (0) +1:word.lower=- --> RESTR: 0.001166
  (0) +1:word.lower=- --> NON-RESTR: -0.001166
  (0) +1postag=HYPH --> RESTR: 0.001130
  (0) +1postag=HYPH --> NON-RESTR: -0.001130
  (0) +1:word.lower=takeover --> RESTR: -0.061430
  (0) +1:word.lower=takeover --> NON-RESTR: 0.061430
  (0) -1:word.lower=- --> RESTR: 0.373063
  (0) -1:word.lower=- --> NON-RESTR: -0.373063
  (0) -1postag=HYPH --> RESTR: 0.355155
  (0) -1postag=HYPH --> NON-RESTR: -0.355155
  (0) lemma=plan --> RESTR: 1.228363
  (0) lemma=give --> RESTR: 2.362350
  (0) -1:word.lower=giving --> RESTR: -0.004798
  (0) -1:word.lower=giving --> NON-RESTR: 0.004798
  (0) -1:word.lower=right --> RESTR: 0.057156
  (0) +1:word.lower=purchase --> RESTR: 0.053450
  (0) +1:word.lower=shares --> RESTR: -0.205601
  (0) +1:word.lower=shares --> NON-RESTR: 0.205601
  (0) -1:word.lower=shares --> RESTR: -0.082408
  (0) -1:word.lower=shares --> NON-RESTR: 0.082408
  (0) -1lemma=half --> RESTR: 0.514192
  (0) +1lemma=half --> RESTR: 0.514192
  (0) word.lower=under --> RESTR: -0.076735
  (0) word.lower=under --> NON-RESTR: 0.076735
  (0) lemma=under --> RESTR: -0.087162
  (0) lemma=under --> NON-RESTR: 0.087162
  (0) -1lemma=under --> RESTR: -0.087162
  (0) -1lemma=under --> NON-RESTR: 0.087162
  (0) +1lemma=under --> RESTR: -0.087162
  (0) +1lemma=under --> NON-RESTR: 0.087162
  (0) +1:word.lower=37 --> RESTR: -0.992297
  (0) +1:word.lower=37 --> NON-RESTR: 0.992297
  (0) word.lower=old --> RESTR: -0.346257
  (0) word.lower=old --> NON-RESTR: 0.346257
  (0) lemma=old --> RESTR: -0.345595
  (0) lemma=old --> NON-RESTR: 0.345595
  (0) -1lemma=old --> RESTR: -0.346257
  (0) -1lemma=old --> NON-RESTR: 0.346257
  (0) +1lemma=old --> RESTR: -0.346257
  (0) +1lemma=old --> NON-RESTR: 0.346257
  (0) modifierType=PREADJ-MOD --> RESTR: 0.843867
  (0) modifierType=PREADJ-MOD --> NON-RESTR: -0.843867
  (0) -1:word.lower=senior --> RESTR: 0.323707
  (0) -1modifierType=PREADJ-MOD --> RESTR: 0.108681
  (0) -1modifierType=PREADJ-MOD --> NON-RESTR: -0.108681
  (0) +1:word.lower=president --> RESTR: -0.691692
  (0) +1:word.lower=president --> NON-RESTR: 0.691692
  (0) word.lower=president --> RESTR: -0.086538
  (0) word.lower=president --> NON-RESTR: 0.086538
  (0) lemma=president --> RESTR: -0.095324
  (0) lemma=president --> NON-RESTR: 0.095324
  (0) -1lemma=president --> RESTR: -0.095324
  (0) -1lemma=president --> NON-RESTR: 0.095324
  (0) +1lemma=president --> RESTR: -0.095324
  (0) +1lemma=president --> NON-RESTR: 0.095324
  (0) -1:word.lower=president --> RESTR: -1.105639
  (0) -1:word.lower=president --> NON-RESTR: 1.105639
  (0) -1:word.lower=printing --> RESTR: -0.819814
  (0) -1:word.lower=printing --> NON-RESTR: 0.819814
  (0) -1:word.lower=concern --> RESTR: 0.694811
  (0) +1:word.lower=was --> RESTR: 0.116912
  (0) +1:word.lower=its --> RESTR: -0.319785
  (0) +1:word.lower=its --> NON-RESTR: 0.319785
  (0) +1:word.lower=new --> RESTR: 0.096699
  (0) +1:word.lower=new --> NON-RESTR: -0.096699
  (0) -1:word.lower=position --> RESTR: -0.678318
  (0) -1:word.lower=position --> NON-RESTR: 0.678318
  (0) -1:word.lower=his --> RESTR: -0.396257
  (0) -1:word.lower=his --> NON-RESTR: 0.396257
  (0) word.lower=that --> RESTR: 0.638537
  (0) lemma=that --> RESTR: 0.627921
  (0) -1lemma=that --> RESTR: 0.627921
  (0) +1lemma=that --> RESTR: 0.627921
  (0) -1:word.lower=that --> RESTR: -0.095529
  (0) -1:word.lower=that --> NON-RESTR: 0.095529
  (0) -1:word.lower='s --> RESTR: -0.392353
  (0) -1:word.lower='s --> NON-RESTR: 0.392353
  (0) -1:word.lower=he --> RESTR: -0.034271
  (0) -1:word.lower=he --> NON-RESTR: 0.034271
  (0) +1:word.lower=from --> RESTR: 0.326715
  (0) +1:word.lower=from --> NON-RESTR: -0.326715
  (0) word.lower=from --> RESTR: 0.019827
  (0) word.lower=from --> NON-RESTR: -0.019827
  (0) lemma=from --> RESTR: 0.019827
  (0) lemma=from --> NON-RESTR: -0.019827
  (0) -1lemma=from --> RESTR: 0.019827
  (0) -1lemma=from --> NON-RESTR: -0.019827
  (0) +1lemma=from --> RESTR: 0.019827
  (0) +1lemma=from --> NON-RESTR: -0.019827
  (0) +1:word.lower=pieces --> RESTR: -1.606347
  (0) +1:word.lower=pieces --> NON-RESTR: 1.606347
  (0) +1postag=JJR --> RESTR: -0.764003
  (0) +1postag=JJR --> NON-RESTR: 0.764003
  (0) postag=JJR --> RESTR: 0.453310
  (0) postag=JJR --> NON-RESTR: -0.453310
  (0) -1postag=WDT --> RESTR: -0.033177
  (0) -1postag=WDT --> NON-RESTR: 0.033177
  (0) -1:word.lower=sounds --> RESTR: 1.472066
  (0) word.lower=with --> RESTR: -0.110375
  (0) word.lower=with --> NON-RESTR: 0.110375
  (0) lemma=with --> RESTR: -0.110837
  (0) lemma=with --> NON-RESTR: 0.110837
  (0) -1lemma=with --> RESTR: -0.110837
  (0) -1lemma=with --> NON-RESTR: 0.110837
  (0) +1:word.lower=pictures --> RESTR: 0.406174
  (0) +1lemma=with --> RESTR: -0.110837
  (0) +1lemma=with --> NON-RESTR: 0.110837
  (0) word.lower=for --> RESTR: -0.022749
  (0) word.lower=for --> NON-RESTR: 0.022749
  (0) lemma=for --> RESTR: -0.022731
  (0) lemma=for --> NON-RESTR: 0.022731
  (0) -1lemma=for --> RESTR: -0.022731
  (0) -1lemma=for --> NON-RESTR: 0.022731
  (0) +1lemma=for --> RESTR: -0.022731
  (0) +1lemma=for --> NON-RESTR: 0.022731
  (0) -1:word.lower=several --> RESTR: -1.106317
  (0) -1:word.lower=several --> NON-RESTR: 1.106317
  (0) +1:word.lower=continue --> RESTR: 0.392925
  (0) lemma=continue --> RESTR: -0.237113
  (0) lemma=continue --> NON-RESTR: 0.237113
  (0) -1:word.lower=including --> RESTR: -0.063817
  (0) -1:word.lower=including --> NON-RESTR: 0.063817
  (0) word.lower=economic --> RESTR: 1.621563
  (0) -1:word.lower=order --> RESTR: 0.054394
  (0) -1:word.lower=which --> RESTR: -0.635623
  (0) -1:word.lower=which --> NON-RESTR: 0.635623
  (0) +1:word.lower=pay --> RESTR: -0.900875
  (0) +1:word.lower=pay --> NON-RESTR: 0.900875
  (0) +1:word.lower=world --> RESTR: -0.258114
  (0) +1:word.lower=world --> NON-RESTR: 0.258114
  (0) -1:word.lower=world --> RESTR: -0.073317
  (0) -1:word.lower=world --> NON-RESTR: 0.073317
  (0) word.lower=against --> RESTR: -0.066050
  (0) word.lower=against --> NON-RESTR: 0.066050
  (0) lemma=against --> RESTR: -0.066050
  (0) lemma=against --> NON-RESTR: 0.066050
  (0) -1lemma=against --> RESTR: -0.066050
  (0) -1lemma=against --> NON-RESTR: 0.066050
  (0) +1lemma=against --> RESTR: -0.066050
  (0) +1lemma=against --> NON-RESTR: 0.066050
  (0) +1:word.lower=press --> RESTR: 0.057098
  (0) -1:word.lower=block --> RESTR: 0.088676
  (0) -1:word.lower=now --> RESTR: 0.258164
  (0) -1lemma=holding --> RESTR: 0.574186
  (0) +1lemma=holding --> RESTR: 0.569429
  (0) word.lower=next --> RESTR: 0.172757
  (0) word.lower=next --> NON-RESTR: -0.172757
  (0) lemma=next --> RESTR: 0.172613
  (0) lemma=next --> NON-RESTR: -0.172613
  (0) -1lemma=next --> RESTR: 0.172613
  (0) -1lemma=next --> NON-RESTR: -0.172613
  (0) +1lemma=next --> RESTR: 0.172613
  (0) +1lemma=next --> NON-RESTR: -0.172613
  (0) +1:word.isupper=True --> RESTR: -0.036162
  (0) +1:word.isupper=True --> NON-RESTR: 0.036162
  (0) +1:word.lower=last --> RESTR: -0.469311
  (0) +1:word.lower=last --> NON-RESTR: 0.469311
  (0) word.lower=last --> RESTR: 3.595739
  (0) lemma=raise --> RESTR: 0.617582
  (0) -1:word.lower=funds --> RESTR: -0.463396
  (0) -1:word.lower=funds --> NON-RESTR: 0.463396
  (0) -1postag=RP --> RESTR: -0.781558
  (0) -1postag=RP --> NON-RESTR: 0.781558
  (0) -1:word.lower=century --> NON-RESTR: 0.932851
  (0) +1:word.lower=chateau --> NON-RESTR: 0.932851
  (0) word.lower=owns --> RESTR: 0.302172
  (0) -1:word.lower=somehow --> RESTR: 0.302172
  (0) -1lemma=owns --> RESTR: 0.302172
  (0) +1lemma=owns --> RESTR: 0.302172
  (0) +1:word.lower=then --> RESTR: 2.943794
  (0) -1:word.lower=few --> RESTR: -0.377363
  (0) -1:word.lower=few --> NON-RESTR: 0.377363
  (0) -1:word.lower=produce --> RESTR: -0.109778
  (0) -1:word.lower=produce --> NON-RESTR: 0.109778
  (0) word.lower=only --> RESTR: -0.147580
  (0) word.lower=only --> NON-RESTR: 0.147580
  (0) lemma=only --> RESTR: -0.147580
  (0) lemma=only --> NON-RESTR: 0.147580
  (0) -1lemma=only --> RESTR: -0.147580
  (0) -1lemma=only --> NON-RESTR: 0.147580
  (0) +1lemma=only --> RESTR: -0.147580
  (0) +1lemma=only --> NON-RESTR: 0.147580
  (0) +1:word.lower=japan --> RESTR: 1.496888
  (0) +1:word.lower=financial --> RESTR: -0.354406
  (0) +1:word.lower=financial --> NON-RESTR: 0.354406
  (0) word.lower=financial --> RESTR: 0.134285
  (0) word.lower=financial --> NON-RESTR: -0.134285
  (0) lemma=financial --> RESTR: 0.133196
  (0) lemma=financial --> NON-RESTR: -0.133196
  (0) -1lemma=financial --> RESTR: 0.133196
  (0) -1lemma=financial --> NON-RESTR: -0.133196
  (0) +1lemma=financial --> RESTR: 0.133196
  (0) +1lemma=financial --> NON-RESTR: -0.133196
  (0) -1:word.lower=financial --> RESTR: 0.239960
  (0) -1:word.lower=institutions --> RESTR: -0.185733
  (0) -1:word.lower=institutions --> NON-RESTR: 0.185733
  (0) word.lower=enormous --> NON-RESTR: 0.020268
  (0) lemma=enormous --> NON-RESTR: 0.020268
  (0) -1lemma=enormous --> NON-RESTR: 0.020268
  (0) +1:word.lower=clout --> NON-RESTR: 0.020268
  (0) +1lemma=enormous --> NON-RESTR: 0.020268
  (0) -1:word.lower=another --> RESTR: -0.558661
  (0) -1:word.lower=another --> NON-RESTR: 0.558661
  (0) word.lower=unprecedented --> RESTR: -0.009920
  (0) word.lower=unprecedented --> NON-RESTR: 0.009920
  (0) lemma=unprecedented --> RESTR: -0.009920
  (0) lemma=unprecedented --> NON-RESTR: 0.009920
  (0) -1lemma=unprecedented --> RESTR: -0.009920
  (0) -1lemma=unprecedented --> NON-RESTR: 0.009920
  (0) +1:word.lower=public --> RESTR: -0.398537
  (0) +1:word.lower=public --> NON-RESTR: 0.398537
  (0) +1lemma=unprecedented --> RESTR: -0.009920
  (0) +1lemma=unprecedented --> NON-RESTR: 0.009920
  (0) word.lower=public --> RESTR: 0.245459
  (0) lemma=public --> RESTR: 0.245771
  (0) -1lemma=public --> RESTR: 0.245771
  (0) +1lemma=public --> RESTR: 0.245771
  (0) lemma=show --> RESTR: 0.168842
  (0) -1:word.lower=power --> RESTR: 0.729240
  (0) +1:word.lower=cash --> RESTR: -0.676123
  (0) +1:word.lower=cash --> NON-RESTR: 0.676123
  (0) +1:word.lower=banks --> RESTR: -1.220963
  (0) +1:word.lower=banks --> NON-RESTR: 1.220963
  (0) word.lower=raising --> RESTR: 0.603864
  (0) -1lemma=raising --> RESTR: 0.603864
  (0) +1lemma=raising --> RESTR: 0.603864
  (0) word.lower=rising --> RESTR: -0.096969
  (0) word.lower=rising --> NON-RESTR: 0.096969
  (0) lemma=rise --> RESTR: -0.065674
  (0) lemma=rise --> NON-RESTR: 0.065674
  (0) +1lemma=rising --> RESTR: -0.096969
  (0) +1lemma=rising --> NON-RESTR: 0.096969
  (0) word.lower=recent --> RESTR: -0.186128
  (0) word.lower=recent --> NON-RESTR: 0.186128
  (0) lemma=recent --> RESTR: -0.186128
  (0) lemma=recent --> NON-RESTR: 0.186128
  (0) -1lemma=recent --> RESTR: -0.186128
  (0) -1lemma=recent --> NON-RESTR: 0.186128
  (0) +1lemma=recent --> RESTR: -0.186128
  (0) +1lemma=recent --> NON-RESTR: 0.186128
  (0) word.lower=strict --> NON-RESTR: 0.211537
  (0) lemma=strict --> NON-RESTR: 0.211537
  (0) -1lemma=strict --> NON-RESTR: 0.211537
  (0) +1:word.lower=barriers --> NON-RESTR: 0.211537
  (0) +1lemma=strict --> NON-RESTR: 0.211537
  (0) -1:word.lower=two --> RESTR: -0.177054
  (0) -1:word.lower=two --> NON-RESTR: 0.177054
  (0) +1:word.lower=each --> RESTR: 0.203295
  (0) +1:word.lower=each --> NON-RESTR: -0.203295
  (0) -1:word.lower=boys --> NON-RESTR: 1.027190
  (0) +1:word.lower=summers --> NON-RESTR: 1.027190
  (0) +1:word.lower=season --> RESTR: 0.805235
  (0) lemma=begin --> RESTR: -0.251148
  (0) lemma=begin --> NON-RESTR: 0.251148
  (0) +1:word.lower=like --> RESTR: 0.261669
  (0) +1:word.lower=workout --> RESTR: -0.257653
  (0) +1:word.lower=workout --> NON-RESTR: 0.257653
  (0) word.lower=great --> RESTR: -0.009514
  (0) word.lower=great --> NON-RESTR: 0.009514
  (0) -1:word.lower=man --> RESTR: 0.728344
  (0) lemma=make --> RESTR: -0.197173
  (0) lemma=make --> NON-RESTR: 0.197173
  (0) +1:word.lower=appearance --> RESTR: 2.745304
  (0) lemma=third --> RESTR: 0.133299
  (0) -1lemma=third --> RESTR: 0.133299
  (0) +1lemma=third --> RESTR: 0.133299
  (0) -1:word.lower=innings --> NON-RESTR: 0.124580
  (0) +1:word.lower=him --> RESTR: 0.729308
  (0) +1:word.lower=back --> RESTR: 2.974482
  (0) lemma=back --> RESTR: -0.077693
  (0) lemma=back --> NON-RESTR: 0.077693
  (0) -1:word.lower=year --> RESTR: -1.322826
  (0) -1:word.lower=year --> NON-RESTR: 1.322826
  (0) lemma=offer --> RESTR: 0.013115
  (0) lemma=offer --> NON-RESTR: -0.013115
  (0) word.lower=stopper --> RESTR: 0.624599
  (0) lemma=stopper --> RESTR: 0.624599
  (0) -1lemma=stopper --> RESTR: 0.624599
  (0) +1lemma=stopper --> RESTR: 0.624599
  (0) -1:word.lower=stopper --> RESTR: 0.339758
  (0) +1:word.lower=cincinnati --> RESTR: 0.339758
  (0) word.lower=big --> RESTR: -0.168724
  (0) word.lower=big --> NON-RESTR: 0.168724
  (0) +1:word.lower=men --> NON-RESTR: 2.607573
  (0) word.lower=former --> RESTR: 0.775442
  (0) lemma=former --> RESTR: 0.775442
  (0) -1lemma=former --> RESTR: 0.775442
  (0) +1lemma=former --> RESTR: 0.775442
  (0) word.lower=second --> RESTR: -0.010873
  (0) word.lower=second --> NON-RESTR: 0.010873
  (0) lemma=second --> RESTR: -0.010873
  (0) lemma=second --> NON-RESTR: 0.010873
  (0) -1lemma=second --> RESTR: -0.010873
  (0) -1lemma=second --> NON-RESTR: 0.010873
  (0) +1lemma=second --> RESTR: -0.010873
  (0) +1lemma=second --> NON-RESTR: 0.010873
  (0) +1:word.lower=as --> RESTR: 0.837363
  (0) +1:word.lower=as --> NON-RESTR: -0.837363
  (0) word.lower=as --> RESTR: -0.305092
  (0) word.lower=as --> NON-RESTR: 0.305092
  (0) word.lower=fat --> NON-RESTR: 0.131583
  (0) lemma=fat --> NON-RESTR: 0.131583
  (0) -1lemma=fat --> NON-RESTR: 0.131583
  (0) +1:word.lower=sound --> NON-RESTR: 0.131583
  (0) +1lemma=fat --> NON-RESTR: 0.131583
  (0) lemma=bounce --> NON-RESTR: 0.134658
  (0) word.lower=federal --> RESTR: 0.167300
  (0) word.lower=federal --> NON-RESTR: -0.167300
  (0) -1:word.lower=% --> RESTR: 0.102315
  (0) -1:word.lower=% --> NON-RESTR: -0.102315
  (0) +1:word.lower=low --> RESTR: -0.299037
  (0) +1:word.lower=low --> NON-RESTR: 0.299037
  (0) -1:word.lower=low --> RESTR: -0.590486
  (0) -1:word.lower=low --> NON-RESTR: 0.590486
  (0) +1:word.lower=bid --> RESTR: -0.609428
  (0) +1:word.lower=bid --> NON-RESTR: 0.609428
  (0) -1:word.lower=bid --> RESTR: -0.215500
  (0) -1:word.lower=bid --> NON-RESTR: 0.215500
  (0) word.lower=offered --> RESTR: 0.003978
  (0) word.lower=offered --> NON-RESTR: -0.003978
  (0) -1lemma=offered --> RESTR: 0.012832
  (0) -1lemma=offered --> NON-RESTR: -0.012832
  (0) +1lemma=offered --> RESTR: 0.003978
  (0) +1lemma=offered --> NON-RESTR: -0.003978
  (0) word.lower=unsecured --> RESTR: -0.147057
  (0) word.lower=unsecured --> NON-RESTR: 0.147057
  (0) lemma=unsecured --> RESTR: -0.147057
  (0) lemma=unsecured --> NON-RESTR: 0.147057
  (0) -1:word.lower=grade --> NON-RESTR: 0.152976
  (0) -1lemma=unsecured --> RESTR: -0.147057
  (0) -1lemma=unsecured --> NON-RESTR: 0.147057
  (0) +1lemma=unsecured --> RESTR: -0.147057
  (0) +1lemma=unsecured --> NON-RESTR: 0.147057
  (0) -1:word.lower=notes --> RESTR: 0.137486
  (0) -1:word.lower=notes --> NON-RESTR: -0.137486
  (0) +1:word.lower=$ --> RESTR: -0.298238
  (0) +1:word.lower=$ --> NON-RESTR: 0.298238
  (0) +1postag=$ --> RESTR: -0.298337
  (0) +1postag=$ --> NON-RESTR: 0.298337
  (0) +1:word.lower=30 --> RESTR: -0.053572
  (0) +1:word.lower=30 --> NON-RESTR: 0.053572
  (0) lemma=day --> RESTR: 0.324940
  (0) -1lemma=day --> RESTR: 0.323518
  (0) +1lemma=day --> RESTR: 0.324940
  (0) +1:word.lower=industry --> RESTR: 2.433145
  (0) -1:word.lower=industry --> RESTR: 3.221550
  (0) +1:word.lower=august --> RESTR: -0.486490
  (0) +1:word.lower=august --> NON-RESTR: 0.486490
  (0) +1:word.lower=july --> RESTR: 0.359720
  (0) word.lower=industrial --> RESTR: -0.041304
  (0) word.lower=industrial --> NON-RESTR: 0.041304
  (0) lemma=industrial --> RESTR: -0.041304
  (0) lemma=industrial --> NON-RESTR: 0.041304
  (0) -1lemma=industrial --> RESTR: -0.041304
  (0) -1lemma=industrial --> NON-RESTR: 0.041304
  (0) +1lemma=industrial --> RESTR: -0.041304
  (0) +1lemma=industrial --> NON-RESTR: 0.041304
  (0) +1:word.lower=0.2 --> RESTR: -0.696216
  (0) +1:word.lower=0.2 --> NON-RESTR: 0.696216
  (0) +1:word.lower=september --> RESTR: -0.853020
  (0) +1:word.lower=september --> NON-RESTR: 0.853020
  (0) word.lower=third --> RESTR: 0.131213
  (0) word.lower=monthly --> RESTR: -0.009862
  (0) word.lower=monthly --> NON-RESTR: 0.009862
  (0) lemma=monthly --> RESTR: -0.009862
  (0) lemma=monthly --> NON-RESTR: 0.009862
  (0) -1lemma=monthly --> RESTR: -0.009862
  (0) -1lemma=monthly --> NON-RESTR: 0.009862
  (0) +1lemma=monthly --> RESTR: -0.009862
  (0) +1lemma=monthly --> NON-RESTR: 0.009862
  (0) -1:word.lower=also --> RESTR: -0.024923
  (0) -1:word.lower=also --> NON-RESTR: 0.024923
  (0) -1:word.lower=people --> RESTR: -0.108060
  (0) -1:word.lower=people --> NON-RESTR: 0.108060
  (0) +1:word.lower=buy --> RESTR: 0.261745
  (0) +1:word.lower=buy --> NON-RESTR: -0.261745
  (0) +1lemma=as --> RESTR: -0.474380
  (0) +1lemma=as --> NON-RESTR: 0.474380
  (0) +1:word.lower=10 --> RESTR: -0.176253
  (0) +1:word.lower=10 --> NON-RESTR: 0.176253
  (0) -1:word.lower=million --> RESTR: 0.013778
  (0) -1:word.lower=million --> NON-RESTR: -0.013778
  (0) word.lower=ridley --> RESTR: 0.075592
  (0) lemma=Ridley --> RESTR: 0.075592
  (0) -1:word.lower=nicholas --> RESTR: 0.075755
  (0) -1lemma=Ridley --> RESTR: 0.075592
  (0) +1lemma=Ridley --> RESTR: 0.075592
  (0) -1:word.lower=house --> RESTR: 0.096493
  (0) word.lower=called --> RESTR: -0.074762
  (0) word.lower=called --> NON-RESTR: 0.074762
  (0) -1lemma=called --> RESTR: -0.074762
  (0) -1lemma=called --> NON-RESTR: 0.074762
  (0) +1lemma=called --> RESTR: -0.074762
  (0) +1lemma=called --> NON-RESTR: 0.074762
  (0) -1:word.lower=share --> RESTR: -0.201635
  (0) -1:word.lower=share --> NON-RESTR: 0.201635
  (0) +1:word.lower=company --> RESTR: 0.749802
  (0) +1:word.lower=u.s. --> RESTR: 2.125613
  (0) +1:word.lower=market --> RESTR: 1.700395
  (0) -1:word.lower=market --> RESTR: -1.263051
  (0) -1:word.lower=market --> NON-RESTR: 1.263051
  (0) lemma=trade --> RESTR: 0.084893
  (0) lemma=trade --> NON-RESTR: -0.084893
  (0) +1:word.lower=up --> RESTR: 0.311127
  (0) lemma=move --> RESTR: -0.043529
  (0) lemma=move --> NON-RESTR: 0.043529
  (0) -1:word.lower=initial --> RESTR: 0.375396
  (0) -1:word.lower=offer --> RESTR: 1.429447
  (0) +1:word.lower=( --> RESTR: 0.061113
  (0) +1postag=( --> RESTR: 0.077601
  (0) word.lower=( --> RESTR: 0.436112
  (0) postag=( --> RESTR: 0.447290
  (0) lemma=( --> RESTR: 0.436112
  (0) -1lemma=( --> RESTR: 0.430849
  (0) +1lemma=( --> RESTR: 0.436112
  (0) -1:word.lower=( --> RESTR: 0.048601
  (0) -1:word.lower=( --> NON-RESTR: -0.048601
  (0) -1postag=( --> RESTR: 0.048692
  (0) -1postag=( --> NON-RESTR: -0.048692
  (0) +1postag=) --> RESTR: 1.577010
  (0) lemma=take --> RESTR: -0.273585
  (0) lemma=take --> NON-RESTR: 0.273585
  (0) lemma=represent --> RESTR: -0.000020
  (0) lemma=represent --> NON-RESTR: 0.000020
  (0) word.lower=voting --> RESTR: 0.371048
  (0) lemma=vote --> RESTR: 0.375904
  (0) -1lemma=voting --> RESTR: 0.371048
  (0) +1lemma=voting --> RESTR: 0.371048
  (0) word.lower=special --> RESTR: -0.131232
  (0) word.lower=special --> NON-RESTR: 0.131232
  (0) lemma=special --> RESTR: -0.131232
  (0) lemma=special --> NON-RESTR: 0.131232
  (0) -1lemma=special --> RESTR: -0.131232
  (0) -1lemma=special --> NON-RESTR: 0.131232
  (0) +1lemma=special --> RESTR: -0.131232
  (0) +1lemma=special --> NON-RESTR: 0.131232
  (0) lemma=large --> RESTR: 0.578753
  (0) lemma=large --> NON-RESTR: -0.578753
  (0) word.lower=british --> RESTR: -0.164147
  (0) word.lower=british --> NON-RESTR: 0.164147
  (0) lemma=British --> RESTR: -0.164147
  (0) lemma=British --> NON-RESTR: 0.164147
  (0) -1lemma=British --> RESTR: -0.164147
  (0) -1lemma=British --> NON-RESTR: 0.164147
  (0) +1lemma=British --> RESTR: -0.164147
  (0) +1lemma=British --> NON-RESTR: 0.164147
  (0) -1:word.lower=plans --> RESTR: 1.430802
  (0) -1lemma=want --> RESTR: 1.427788
  (0) +1lemma=want --> RESTR: 1.428847
  (0) +1:word.lower=stake --> RESTR: 1.740555
  (0) -1:word.lower=stake --> RESTR: -0.635793
  (0) -1:word.lower=stake --> NON-RESTR: 0.635793
  (0) -1:word.lower=no --> RESTR: 1.522793
  (0) -1:word.lower=university --> RESTR: -0.196533
  (0) -1:word.lower=university --> NON-RESTR: 0.196533
  (0) -1:word.lower=chairman --> RESTR: -0.604577
  (0) -1:word.lower=chairman --> NON-RESTR: 0.604577
  (0) +1:word.lower=chief --> RESTR: -1.191103
  (0) +1:word.lower=chief --> NON-RESTR: 1.191103
  (0) word.lower=manager --> RESTR: 0.359122
  (0) -1:word.lower=manager --> RESTR: -0.641981
  (0) -1:word.lower=manager --> NON-RESTR: 0.641981
  (0) +1:word.lower=three --> RESTR: 0.383028
  (0) word.lower=domestic --> RESTR: -0.107417
  (0) word.lower=domestic --> NON-RESTR: 0.107417
  (0) lemma=domestic --> RESTR: -0.107417
  (0) lemma=domestic --> NON-RESTR: 0.107417
  (0) -1lemma=domestic --> RESTR: -0.107417
  (0) -1lemma=domestic --> NON-RESTR: 0.107417
  (0) +1lemma=domestic --> RESTR: -0.107417
  (0) +1lemma=domestic --> NON-RESTR: 0.107417
  (0) -1:word.lower=interest --> RESTR: 0.359181
  (0) -1:word.lower=anticipation --> RESTR: -0.452759
  (0) -1:word.lower=anticipation --> NON-RESTR: 0.452759
  (0) +1:word.lower=inflation --> RESTR: -0.450930
  (0) +1:word.lower=inflation --> NON-RESTR: 0.450930
  (0) -1:word.lower=dealer --> RESTR: 0.081709
  (0) -1:word.lower=makers --> RESTR: -0.106149
  (0) -1:word.lower=makers --> NON-RESTR: 0.106149
  (0) word.lower=based --> RESTR: 0.140526
  (0) word.lower=based --> NON-RESTR: -0.140526
  (0) lemma=base --> RESTR: 0.140526
  (0) lemma=base --> NON-RESTR: -0.140526
  (0) -1lemma=based --> RESTR: 0.140526
  (0) -1lemma=based --> NON-RESTR: -0.140526
  (0) +1lemma=based --> RESTR: 0.140526
  (0) +1lemma=based --> NON-RESTR: -0.140526
  (0) -1:word.lower=hour --> RESTR: 0.241438
  (0) word.lower=modest --> NON-RESTR: 0.364587
  (0) lemma=modest --> NON-RESTR: 0.364587
  (0) -1lemma=modest --> NON-RESTR: 0.364587
  (0) +1lemma=modest --> NON-RESTR: 0.364587
  (0) word.lower=monday --> RESTR: -0.278871
  (0) word.lower=monday --> NON-RESTR: 0.278871
  (0) lemma=Monday --> RESTR: -0.278871
  (0) lemma=Monday --> NON-RESTR: 0.278871
  (0) -1lemma=Monday --> RESTR: -0.279316
  (0) -1lemma=Monday --> NON-RESTR: 0.279316
  (0) +1lemma=Monday --> RESTR: -0.278871
  (0) +1lemma=Monday --> NON-RESTR: 0.278871
  (0) word.lower=day --> RESTR: 0.309851
  (0) lemma=lead --> RESTR: -0.511167
  (0) lemma=lead --> NON-RESTR: 0.511167
  (0) +1:word.lower=above --> RESTR: 0.221129
  (0) word.lower=above --> RESTR: -0.085762
  (0) word.lower=above --> NON-RESTR: 0.085762
  (0) lemma=above --> RESTR: -0.085762
  (0) lemma=above --> NON-RESTR: 0.085762
  (0) -1lemma=above --> RESTR: -0.085762
  (0) -1lemma=above --> NON-RESTR: 0.085762
  (0) +1lemma=above --> RESTR: -0.085762
  (0) +1lemma=above --> NON-RESTR: 0.085762
  (0) word.lower=since --> RESTR: 0.018012
  (0) lemma=since --> RESTR: 0.021227
  (0) -1lemma=since --> RESTR: 0.021227
  (0) +1lemma=since --> RESTR: 0.021227
  (0) word.lower=among --> RESTR: -0.327352
  (0) word.lower=among --> NON-RESTR: 0.327352
  (0) lemma=among --> RESTR: -0.328710
  (0) lemma=among --> NON-RESTR: 0.328710
  (0) -1lemma=among --> RESTR: -0.328710
  (0) -1lemma=among --> NON-RESTR: 0.328710
  (0) +1lemma=among --> RESTR: -0.328710
  (0) +1lemma=among --> NON-RESTR: 0.328710
  (0) word.lower=sharp --> RESTR: -0.028928
  (0) word.lower=sharp --> NON-RESTR: 0.028928
  (0) lemma=sharp --> RESTR: -0.028532
  (0) lemma=sharp --> NON-RESTR: 0.028532
  (0) -1lemma=sharp --> RESTR: -0.028532
  (0) -1lemma=sharp --> NON-RESTR: 0.028532
  (0) +1lemma=sharp --> RESTR: -0.028532
  (0) +1lemma=sharp --> NON-RESTR: 0.028532
  (0) +1:word.lower=bank --> RESTR: 0.356197
  (0) +1:word.lower=bank --> NON-RESTR: -0.356197
  (0) -1:word.lower=yields --> RESTR: 0.690540
  (0) word.lower=halfhearted --> NON-RESTR: 0.020885
  (0) lemma=halfhearted --> NON-RESTR: 0.020885
  (0) -1lemma=halfhearted --> NON-RESTR: 0.020885
  (0) +1:word.lower=attempt --> RESTR: -0.019405
  (0) +1:word.lower=attempt --> NON-RESTR: 0.019405
  (0) +1lemma=halfhearted --> NON-RESTR: 0.020885
  (0) -1:word.lower=attempt --> RESTR: 0.054873
  (0) +1:word.lower=introduce --> RESTR: 0.052802
  (0) -1:word.lower=bit --> RESTR: -0.556411
  (0) -1:word.lower=bit --> NON-RESTR: 0.556411
  (0) +1:word.lower=les --> NON-RESTR: 0.597360
  (0) -1:word.lower=balloon --> RESTR: 0.075034
  (0) word.lower=held --> RESTR: -0.002863
  (0) word.lower=held --> NON-RESTR: 0.002863
  (0) +1lemma=held --> RESTR: -0.002863
  (0) +1lemma=held --> NON-RESTR: 0.002863
  (0) +1:word.lower=convocation --> NON-RESTR: 0.987875
  (0) -1:word.lower=largest --> RESTR: -0.901357
  (0) -1:word.lower=largest --> NON-RESTR: 0.901357
  (0) -1:word.lower=convocation --> NON-RESTR: 0.841594
  (0) +1:word.lower=ersatz --> NON-RESTR: 0.841594
  (0) +1:word.lower=albuquerque --> RESTR: 0.299361
  (0) word.lower=fiesta --> RESTR: 0.076151
  (0) lemma=Fiesta --> RESTR: 0.076151
  (0) -1lemma=Fiesta --> RESTR: 0.076151
  (0) +1lemma=Fiesta --> RESTR: 0.076151
  (0) +1:word.lower=12 --> RESTR: -0.258909
  (0) +1:word.lower=12 --> NON-RESTR: 0.258909
  (0) -1:word.lower=inches --> NON-RESTR: 0.096575
  (0) word.lower=fed --> RESTR: 0.293543
  (0) word.lower=down --> RESTR: 0.579329
  (0) lemma=down --> RESTR: 0.579329
  (0) -1lemma=down --> RESTR: 0.579329
  (0) +1lemma=down --> RESTR: 0.579329
  (0) word.lower=smaller --> RESTR: -0.288794
  (0) word.lower=smaller --> NON-RESTR: 0.288794
  (0) lemma=small --> RESTR: -0.065476
  (0) lemma=small --> NON-RESTR: 0.065476
  (0) -1lemma=smaller --> RESTR: -0.288794
  (0) -1lemma=smaller --> NON-RESTR: 0.288794
  (0) +1lemma=smaller --> RESTR: -0.288794
  (0) +1lemma=smaller --> NON-RESTR: 0.288794
  (0) +1:word.lower=do --> RESTR: 0.076729
  (0) -1:word.lower=staffs --> RESTR: 0.266166
  (0) word.lower=quick --> NON-RESTR: 0.233014
  (0) lemma=quick --> NON-RESTR: 0.233014
  (0) -1lemma=quick --> NON-RESTR: 0.233014
  (0) +1lemma=quick --> NON-RESTR: 0.233014
  (0) word.lower=complex --> RESTR: 0.165092
  (0) lemma=complex --> RESTR: 0.165092
  (0) -1lemma=complex --> RESTR: 0.165092
  (0) +1:word.lower=arms --> RESTR: 0.340217
  (0) +1lemma=complex --> RESTR: 0.165092
  (0) +1:word.lower=control --> RESTR: -0.421201
  (0) +1:word.lower=control --> NON-RESTR: 0.421201
  (0) +1:word.lower=solely --> RESTR: 0.340948
  (0) lemma=develop --> RESTR: -0.033062
  (0) lemma=develop --> NON-RESTR: 0.033062
  (0) -1:word.lower=developing --> RESTR: -0.060693
  (0) -1:word.lower=developing --> NON-RESTR: 0.060693
  (0) -1:word.lower=value --> RESTR: -1.304257
  (0) -1:word.lower=value --> NON-RESTR: 1.304257
  (0) -1:word.lower=transactions --> RESTR: 2.483648
  (0) +1:word.lower=but --> RESTR: -0.595484
  (0) +1:word.lower=but --> NON-RESTR: 0.595484
  (0) word.lower=between --> RESTR: 0.086852
  (0) word.lower=between --> NON-RESTR: -0.086852
  (0) lemma=between --> RESTR: 0.086852
  (0) lemma=between --> NON-RESTR: -0.086852
  (0) -1lemma=between --> RESTR: 0.086852
  (0) -1lemma=between --> NON-RESTR: -0.086852
  (0) +1lemma=between --> RESTR: 0.086852
  (0) +1lemma=between --> NON-RESTR: -0.086852
  (0) -1:word.lower=head --> RESTR: 1.069463
  (0) word.lower=congressional --> RESTR: 0.194793
  (0) -1:word.lower=opening --> RESTR: -0.128365
  (0) -1:word.lower=opening --> NON-RESTR: 0.128365
  (0) -1:word.lower=assistant --> RESTR: 0.162543
  (0) -1:word.lower=assistant --> NON-RESTR: -0.162543
  (0) lemma=economic --> RESTR: 0.196884
  (0) -1lemma=economic --> RESTR: 0.196884
  (0) +1lemma=economic --> RESTR: 0.196884
  (0) -1:word.lower=elections --> RESTR: -1.066141
  (0) -1:word.lower=elections --> NON-RESTR: 1.066141
  (0) word.lower=moving --> RESTR: -0.056182
  (0) word.lower=moving --> NON-RESTR: 0.056182
  (0) +1lemma=moving --> RESTR: -0.056182
  (0) +1lemma=moving --> NON-RESTR: 0.056182
  (0) -1:word.lower=tax --> RESTR: -0.677358
  (0) -1:word.lower=tax --> NON-RESTR: 0.677358
  (0) -1:word.lower=billion --> RESTR: 0.532567
  (0) -1:word.lower=threat --> NON-RESTR: 1.340802
  (0) +1:word.lower=business --> RESTR: 0.440582
  (0) +1:word.lower=business --> NON-RESTR: -0.440582
  (0) word.lower=total --> RESTR: -0.145579
  (0) word.lower=total --> NON-RESTR: 0.145579
  (0) -1lemma=total --> RESTR: -0.145579
  (0) -1lemma=total --> NON-RESTR: 0.145579
  (0) +1lemma=total --> RESTR: -0.145579
  (0) +1lemma=total --> NON-RESTR: 0.145579
  (0) word.lower=forecasting --> RESTR: 0.034737
  (0) lemma=forecast --> RESTR: 0.034737
  (0) -1lemma=forecasting --> RESTR: 0.034737
  (0) +1:word.lower=gauge --> RESTR: 0.036564
  (0) +1lemma=forecasting --> RESTR: 0.034737
  (0) +1:word.lower=economy --> RESTR: 0.071433
  (0) -1:word.lower=economy --> RESTR: 0.438099
  (0) +1:word.lower=slowing --> RESTR: 0.430702
  (0) word.lower=small --> RESTR: -0.004101
  (0) word.lower=small --> NON-RESTR: 0.004101
  (0) -1:word.lower=support --> RESTR: 0.265573
  (0) word.lower=imaginative --> RESTR: 0.395705
  (0) lemma=imaginative --> RESTR: 0.395705
  (0) -1lemma=imaginative --> RESTR: 0.395705
  (0) +1lemma=imaginative --> RESTR: 0.395705
  (0) word.lower=popular --> RESTR: 0.242604
  (0) lemma=popular --> RESTR: 0.242604
  (0) -1lemma=popular --> RESTR: 0.242604
  (0) +1lemma=popular --> RESTR: 0.242604
  (0) word.lower=electronic --> RESTR: -0.106008
  (0) word.lower=electronic --> NON-RESTR: 0.106008
  (0) lemma=electronic --> RESTR: -0.105480
  (0) lemma=electronic --> NON-RESTR: 0.105480
  (0) -1lemma=electronic --> RESTR: -0.105480
  (0) -1lemma=electronic --> NON-RESTR: 0.105480
  (0) +1lemma=electronic --> RESTR: -0.105480
  (0) +1lemma=electronic --> NON-RESTR: 0.105480
  (0) -1:word.lower=program --> RESTR: -0.137291
  (0) -1:word.lower=program --> NON-RESTR: 0.137291
  (0) +1:word.lower=used --> RESTR: 1.688933
  (0) word.lower=created --> RESTR: 0.079196
  (0) word.lower=created --> NON-RESTR: -0.079196
  (0) lemma=create --> RESTR: 0.067908
  (0) lemma=create --> NON-RESTR: -0.067908
  (0) -1lemma=created --> RESTR: 0.078756
  (0) -1lemma=created --> NON-RESTR: -0.078756
  (0) +1lemma=created --> RESTR: 0.079196
  (0) +1lemma=created --> NON-RESTR: -0.079196
  (0) word.lower=cleans --> RESTR: 0.166199
  (0) lemma=clean --> RESTR: 0.166199
  (0) -1:word.lower=routinely --> RESTR: 0.166199
  (0) -1lemma=cleans --> RESTR: 0.166199
  (0) +1lemma=clean --> RESTR: 0.166199
  (0) word.lower=military --> RESTR: 0.256911
  (0) lemma=military --> RESTR: 0.256911
  (0) -1lemma=military --> RESTR: 0.256911
  (0) +1lemma=military --> RESTR: 0.256911
  (0) word.lower=national --> RESTR: 0.439995
  (0) lemma=national --> RESTR: 0.432259
  (0) -1lemma=national --> RESTR: 0.432259
  (0) +1lemma=national --> RESTR: 0.432259
  (0) word.lower=calling --> RESTR: 0.173251
  (0) -1lemma=calling --> RESTR: 0.173251
  (0) +1lemma=calling --> RESTR: 0.173251
  (0) word.lower=own --> RESTR: -0.022018
  (0) word.lower=own --> NON-RESTR: 0.022018
  (0) -1lemma=own --> RESTR: -0.022018
  (0) -1lemma=own --> NON-RESTR: 0.022018
  (0) +1lemma=own --> RESTR: -0.022018
  (0) +1lemma=own --> NON-RESTR: 0.022018
  (0) -1:word.lower=own --> RESTR: 0.595433
  (0) -1:word.lower=analyst --> RESTR: -0.883579
  (0) -1:word.lower=analyst --> NON-RESTR: 0.883579
  (0) +1:word.lower=machines --> RESTR: 0.423426
  (0) -1:word.lower=machines --> RESTR: 0.343103
  (0) +1:word.lower=research --> RESTR: -0.780100
  (0) +1:word.lower=research --> NON-RESTR: 0.780100
  (0) -1:word.lower=firm --> RESTR: -0.183152
  (0) -1:word.lower=firm --> NON-RESTR: 0.183152
  (0) +1:word.lower=revenue --> RESTR: -0.180744
  (0) +1:word.lower=revenue --> NON-RESTR: 0.180744
  (0) -1lemma=big --> RESTR: -0.179844
  (0) -1lemma=big --> NON-RESTR: 0.179844
  (0) +1lemma=big --> RESTR: -0.179844
  (0) +1lemma=big --> NON-RESTR: 0.179844
  (0) word.lower=risc --> RESTR: -0.095448
  (0) word.lower=risc --> NON-RESTR: 0.095448
  (0) lemma=RISC --> RESTR: -0.095448
  (0) lemma=RISC --> NON-RESTR: 0.095448
  (0) -1lemma=RISC --> RESTR: -0.095448
  (0) -1lemma=RISC --> NON-RESTR: 0.095448
  (0) +1lemma=RISC --> RESTR: -0.095448
  (0) +1lemma=RISC --> NON-RESTR: 0.095448
  (0) +1:word.lower=deficit --> RESTR: -0.008754
  (0) +1:word.lower=deficit --> NON-RESTR: 0.008754
  (0) -1:word.lower=targets --> NON-RESTR: 1.198659
  (0) -1:word.lower=law --> RESTR: 2.027213
  (0) -1:word.lower=assets --> RESTR: -0.491692
  (0) -1:word.lower=assets --> NON-RESTR: 0.491692
  (0) +1:word.lower=sick --> NON-RESTR: 0.546415
  (0) word.lower=sympathetic --> NON-RESTR: 0.099391
  (0) lemma=sympathetic --> NON-RESTR: 0.099391
  (0) -1lemma=sympathetic --> NON-RESTR: 0.099391
  (0) +1:word.lower=fans --> NON-RESTR: 0.099391
  (0) +1lemma=sympathetic --> NON-RESTR: 0.099391
  (0) word.lower=ousted --> RESTR: 0.165248
  (0) lemma=oust --> RESTR: 0.165248
  (0) -1lemma=ousted --> RESTR: 0.165248
  (0) +1:word.lower=directors --> RESTR: 0.166908
  (0) +1lemma=ousted --> RESTR: 0.165248
  (0) -1:word.lower=james --> RESTR: 0.048217
  (0) -1:word.lower=operations --> RESTR: -0.494824
  (0) -1:word.lower=operations --> NON-RESTR: 0.494824
  (0) -1:word.lower=payments --> RESTR: -0.132717
  (0) -1:word.lower=payments --> NON-RESTR: 0.132717
  (0) lemma=complete --> RESTR: 0.261089
  (0) word.lower=completed --> RESTR: 0.245013
  (0) -1lemma=completed --> RESTR: 0.241722
  (0) +1lemma=completed --> RESTR: 0.245013
  (0) +1:word.lower=warrants --> RESTR: 0.147301
  (0) word.lower=court --> RESTR: 0.364412
  (0) -1:word.lower=court --> RESTR: -0.726072
  (0) -1:word.lower=court --> NON-RESTR: 0.726072
  (0) word.lower=crossed --> RESTR: 0.724241
  (0) lemma=cross --> RESTR: 0.731117
  (0) -1lemma=crossed --> RESTR: 0.724241
  (0) +1lemma=crossed --> RESTR: 0.724241
  (0) +1:word.lower=cambria --> RESTR: 1.459025
  (0) +1:word.lower=jailed --> RESTR: 0.172768
  (0) -1:word.lower=jailed --> RESTR: -0.269370
  (0) -1:word.lower=jailed --> NON-RESTR: 0.269370
  (0) +1:word.lower=members --> RESTR: -0.707542
  (0) +1:word.lower=members --> NON-RESTR: 0.707542
  (0) -1:word.lower=members --> RESTR: 0.600880
  (0) +1:word.lower=several --> RESTR: -0.869421
  (0) +1:word.lower=several --> NON-RESTR: 0.869421
  (0) word.lower=after --> RESTR: 0.143704
  (0) lemma=after --> RESTR: 0.135591
  (0) -1lemma=after --> RESTR: 0.135591
  (0) +1lemma=after --> RESTR: 0.135591
  (0) +1:word.lower=extend --> RESTR: 0.054416
  (0) -1:word.lower=john --> RESTR: -0.051119
  (0) -1:word.lower=john --> NON-RESTR: 0.051119
  (0) -1:word.lower=association --> RESTR: -0.438143
  (0) -1:word.lower=association --> NON-RESTR: 0.438143
  (0) word.lower=attorney --> RESTR: 0.159210
  (0) word.lower=attorney --> NON-RESTR: -0.159210
  (0) lemma=attorney --> RESTR: 0.187062
  (0) lemma=attorney --> NON-RESTR: -0.187062
  (0) -1lemma=attorney --> RESTR: 0.187062
  (0) -1lemma=attorney --> NON-RESTR: -0.187062
  (0) +1lemma=attorney --> RESTR: 0.159210
  (0) +1lemma=attorney --> NON-RESTR: -0.159210
  (0) -1:word.lower=attorney --> RESTR: -0.154793
  (0) -1:word.lower=attorney --> NON-RESTR: 0.154793
  (0) word.lower=unrelated --> NON-RESTR: 0.015670
  (0) lemma=unrelated --> NON-RESTR: 0.015670
  (0) -1lemma=unrelated --> NON-RESTR: 0.015670
  (0) +1:word.lower=investigation --> RESTR: -0.017177
  (0) +1:word.lower=investigation --> NON-RESTR: 0.017177
  (0) +1lemma=unrelated --> NON-RESTR: 0.015670
  (0) -1:word.lower=investigation --> RESTR: -0.227408
  (0) -1:word.lower=investigation --> NON-RESTR: 0.227408
  (0) +1:word.lower=corruption --> RESTR: -0.227855
  (0) +1:word.lower=corruption --> NON-RESTR: 0.227855
  (0) word.lower=caused --> RESTR: 0.295145
  (0) lemma=cause --> RESTR: 0.305824
  (0) -1lemma=caused --> RESTR: 0.291513
  (0) +1lemma=caused --> RESTR: 0.295145
  (0) word.lower=common --> RESTR: -0.139600
  (0) word.lower=common --> NON-RESTR: 0.139600
  (0) lemma=common --> RESTR: -0.139600
  (0) lemma=common --> NON-RESTR: 0.139600
  (0) -1lemma=common --> RESTR: -0.139600
  (0) -1lemma=common --> NON-RESTR: 0.139600
  (0) +1lemma=common --> RESTR: -0.139600
  (0) +1lemma=common --> NON-RESTR: 0.139600
  (0) modifierType=POSTADJ-MOD --> NON-RESTR: 0.429255
  (0) +1:word.lower=nov. --> RESTR: 0.636621
  (0) -1:word.lower=if --> RESTR: 0.238250
  (0) word.lower=planned --> RESTR: 1.159701
  (0) +1lemma=planned --> RESTR: 1.159701
  (0) -1:word.lower=rate --> RESTR: -0.061134
  (0) -1:word.lower=rate --> NON-RESTR: 0.061134
  (0) +1:word.lower=losses --> RESTR: -0.633589
  (0) +1:word.lower=losses --> NON-RESTR: 0.633589
  (0) word.lower=principal --> RESTR: -0.030592
  (0) word.lower=principal --> NON-RESTR: 0.030592
  (0) lemma=principal --> RESTR: -0.030592
  (0) lemma=principal --> NON-RESTR: 0.030592
  (0) -1lemma=principal --> RESTR: -0.030592
  (0) -1lemma=principal --> NON-RESTR: 0.030592
  (0) +1lemma=principal --> RESTR: -0.030592
  (0) +1lemma=principal --> NON-RESTR: 0.030592
  (0) +1:word.lower=credit --> RESTR: 2.986535
  (0) word.lower=backed --> RESTR: -0.160020
  (0) word.lower=backed --> NON-RESTR: 0.160020
  (0) -1lemma=backed --> RESTR: -0.162487
  (0) -1lemma=backed --> NON-RESTR: 0.162487
  (0) +1lemma=backed --> RESTR: -0.160020
  (0) +1lemma=backed --> NON-RESTR: 0.160020
  (0) word.lower=final --> RESTR: 0.297335
  (0) lemma=final --> RESTR: 0.297335
  (0) -1lemma=final --> RESTR: 0.297335
  (0) +1lemma=final --> RESTR: 0.297335
  (0) +1:word.lower=priced --> RESTR: 0.405644
  (0) -1:word.lower=coupon --> RESTR: -0.228012
  (0) -1:word.lower=coupon --> NON-RESTR: 0.228012
  (0) -1:word.lower=bond --> RESTR: -0.212154
  (0) -1:word.lower=bond --> NON-RESTR: 0.212154
  (0) word.lower=subsidiary --> RESTR: 0.384071
  (0) lemma=subsidiary --> RESTR: 0.384684
  (0) -1lemma=subsidiary --> RESTR: 0.384684
  (0) +1lemma=subsidiary --> RESTR: 0.384684
  (0) -1lemma=held --> RESTR: -0.001937
  (0) -1lemma=held --> NON-RESTR: 0.001937
  (0) -1:word.lower=sale --> RESTR: -0.065936
  (0) -1:word.lower=sale --> NON-RESTR: 0.065936
  (0) -1:word.lower=obstacle --> NON-RESTR: 1.347423
  (0) lemma=Court --> RESTR: 0.317369
  (0) -1lemma=Court --> RESTR: 0.317369
  (0) +1lemma=Court --> RESTR: 0.317369
  (0) +1:word.lower=oil --> RESTR: -0.021915
  (0) +1:word.lower=oil --> NON-RESTR: 0.021915
  (0) +1:word.lower=gas --> RESTR: -0.060633
  (0) +1:word.lower=gas --> NON-RESTR: 0.060633
  (0) word.lower=issued --> RESTR: 0.489716
  (0) -1lemma=issued --> RESTR: 0.489716
  (0) +1lemma=issued --> RESTR: 0.489716
  (0) +1:word.lower=fannie --> RESTR: 0.484593
  (0) +1:word.lower=japanese --> RESTR: -0.228759
  (0) +1:word.lower=japanese --> NON-RESTR: 0.228759
  (0) word.lower=japanese --> RESTR: 0.031148
  (0) word.lower=japanese --> NON-RESTR: -0.031148
  (0) lemma=Japanese --> RESTR: 0.031148
  (0) lemma=Japanese --> NON-RESTR: -0.031148
  (0) -1lemma=Japanese --> RESTR: 0.031148
  (0) -1lemma=Japanese --> NON-RESTR: -0.031148
  (0) +1lemma=Japanese --> RESTR: 0.031148
  (0) +1lemma=Japanese --> NON-RESTR: -0.031148
  (0) -1:word.lower=japanese --> RESTR: -0.014626
  (0) -1:word.lower=japanese --> NON-RESTR: 0.014626
  (0) word.lower=steady --> NON-RESTR: 0.017675
  (0) lemma=steady --> NON-RESTR: 0.017675
  (0) -1lemma=steady --> NON-RESTR: 0.017675
  (0) +1lemma=steady --> NON-RESTR: 0.017675
  (0) word.lower=institutional --> NON-RESTR: 0.177207
  (0) lemma=institutional --> NON-RESTR: 0.177207
  (0) -1lemma=institutional --> NON-RESTR: 0.177207
  (0) +1lemma=institutional --> NON-RESTR: 0.177207
  (0) +1:word.lower=northern --> RESTR: 0.233490
  (0) +1:word.lower=nekoosa --> RESTR: -0.166136
  (0) +1:word.lower=nekoosa --> NON-RESTR: 0.166136
  (0) word.lower=specific --> RESTR: -0.076087
  (0) word.lower=specific --> NON-RESTR: 0.076087
  (0) lemma=specific --> RESTR: -0.076087
  (0) lemma=specific --> NON-RESTR: 0.076087
  (0) -1lemma=specific --> RESTR: -0.076087
  (0) -1lemma=specific --> NON-RESTR: 0.076087
  (0) +1lemma=specific --> RESTR: -0.076087
  (0) +1lemma=specific --> NON-RESTR: 0.076087
  (0) +1:word.lower=failed --> RESTR: 0.715736
  (0) -1:word.lower=filed --> RESTR: -0.234355
  (0) -1:word.lower=filed --> NON-RESTR: 0.234355
  (0) +1:word.lower=lawsuits --> RESTR: -0.203140
  (0) +1:word.lower=lawsuits --> NON-RESTR: 0.203140
  (0) -1:word.lower=lawsuits --> RESTR: -0.345987
  (0) -1:word.lower=lawsuits --> NON-RESTR: 0.345987
  (0) -1:word.lower=controls --> RESTR: 0.338456
  (0) word.lower=pettit --> NON-RESTR: 0.103630
  (0) lemma=Pettit --> NON-RESTR: 0.103630
  (0) -1:word.lower=raymond --> NON-RESTR: 0.103630
  (0) -1lemma=Pettit --> NON-RESTR: 0.103630
  (0) +1lemma=Pettit --> NON-RESTR: 0.103630
  (0) +1:word.lower=rockefeller --> RESTR: 0.361683
  (0) word.lower=foreign --> RESTR: 0.689716
  (0) word.lower=foreign --> NON-RESTR: -0.689716
  (0) -1:word.lower=superior --> RESTR: 0.315649
  (0) -1:word.lower=hearing --> RESTR: -0.131265
  (0) -1:word.lower=hearing --> NON-RESTR: 0.131265
  (0) +1:word.lower=taking --> RESTR: 0.720495
  (0) lemma=top --> RESTR: -0.575574
  (0) lemma=top --> NON-RESTR: 0.575574
  (0) -1:word.lower=contract --> RESTR: -0.589118
  (0) -1:word.lower=contract --> NON-RESTR: 0.589118
  (0) word.lower=sworn --> RESTR: 0.462427
  (0) lemma=swear --> RESTR: 0.462427
  (0) -1lemma=sworn --> RESTR: 0.462427
  (0) +1lemma=sworn --> RESTR: 0.462427
  (0) word.lower=legal --> RESTR: -0.015101
  (0) word.lower=legal --> NON-RESTR: 0.015101
  (0) lemma=legal --> RESTR: -0.015308
  (0) lemma=legal --> NON-RESTR: 0.015308
  (0) -1lemma=legal --> RESTR: -0.015308
  (0) -1lemma=legal --> NON-RESTR: 0.015308
  (0) +1lemma=legal --> RESTR: -0.015308
  (0) +1lemma=legal --> NON-RESTR: 0.015308
  (0) lemma=federal --> RESTR: 0.158796
  (0) lemma=federal --> NON-RESTR: -0.158796
  (0) -1lemma=federal --> RESTR: 0.158796
  (0) -1lemma=federal --> NON-RESTR: -0.158796
  (0) +1lemma=federal --> RESTR: 0.158796
  (0) +1lemma=federal --> NON-RESTR: -0.158796
  (0) word.lower=controversial --> RESTR: 0.017191
  (0) word.lower=controversial --> NON-RESTR: -0.017191
  (0) lemma=controversial --> RESTR: 0.017191
  (0) lemma=controversial --> NON-RESTR: -0.017191
  (0) -1lemma=controversial --> RESTR: 0.017191
  (0) -1lemma=controversial --> NON-RESTR: -0.017191
  (0) +1lemma=controversial --> RESTR: 0.017191
  (0) +1lemma=controversial --> NON-RESTR: -0.017191
  (0) +1:word.lower=brand --> RESTR: 0.273279
  (0) -1:word.lower=marketers --> NON-RESTR: 0.764327
  (0) +1:word.lower=faux --> NON-RESTR: 0.764327
  (0) -1:word.lower=department --> RESTR: -0.511099
  (0) -1:word.lower=department --> NON-RESTR: 0.511099
  (0) -1:word.lower=isikoff --> NON-RESTR: 0.164562
  (0) +1:word.lower=less --> RESTR: 0.655792
  (0) -1:word.lower=blessing --> RESTR: 0.106513
  (0) -1lemma=build --> RESTR: 1.594671
  (0) +1lemma=build --> RESTR: 1.594671
  (0) word.lower=praising --> RESTR: 0.166892
  (0) lemma=praise --> RESTR: 0.166892
  (0) -1:word.lower=chapman --> RESTR: 0.166892
  (0) -1lemma=praising --> RESTR: 0.166892
  (0) +1lemma=praise --> RESTR: 0.166892
  (0) +1:word.lower=leader --> RESTR: -0.578297
  (0) +1:word.lower=leader --> NON-RESTR: 0.578297
  (0) -1:word.lower=nelson --> RESTR: 1.099894
  (0) word.lower=joint --> RESTR: 0.099554
  (0) lemma=joint --> RESTR: 0.099091
  (0) -1lemma=joint --> RESTR: 0.099091
  (0) +1lemma=joint --> RESTR: 0.099091
  (0) -1:word.lower=clients --> RESTR: -0.121207
  (0) -1:word.lower=clients --> NON-RESTR: 0.121207
  (0) -1:word.lower=rehearing --> NON-RESTR: 0.812849
  (0) -1:word.lower=female --> RESTR: -0.154210
  (0) -1:word.lower=female --> NON-RESTR: 0.154210
  (0) -1:word.lower=acquisition --> RESTR: -0.555636
  (0) -1:word.lower=acquisition --> NON-RESTR: 0.555636
  (0) +1:word.lower=compete --> RESTR: 0.052989
  (0) -1:word.lower=` --> RESTR: 2.164857
  (0) word.lower=let --> RESTR: 0.344378
  (0) lemma=let --> RESTR: 0.344378
  (0) -1lemma=let --> RESTR: 0.344378
  (0) +1lemma=let --> RESTR: 0.344378
  (0) word.lower=oberstar --> RESTR: 0.048008
  (0) lemma=Oberstar --> RESTR: 0.048008
  (0) -1lemma=Oberstar --> RESTR: 0.048008
  (0) +1lemma=Oberstar --> RESTR: 0.048008
  (0) word.lower=undesirable --> RESTR: 0.081593
  (0) lemma=undesirable --> RESTR: 0.081593
  (0) -1lemma=undesirable --> RESTR: 0.081593
  (0) +1:word.lower=deals --> RESTR: 0.081633
  (0) +1lemma=undesirable --> RESTR: 0.081593
  (0) lemma=help --> RESTR: 0.284953
  (0) +1lemma=help --> RESTR: 0.280292
  (0) -1:word.lower=loss --> RESTR: -0.240778
  (0) -1:word.lower=loss --> NON-RESTR: 0.240778
  (0) +1:word.lower=june --> RESTR: 0.794524
  (0) word.lower=due --> RESTR: 0.139665
  (0) word.lower=due --> NON-RESTR: -0.139665
  (0) lemma=due --> RESTR: 0.140528
  (0) lemma=due --> NON-RESTR: -0.140528
  (0) -1lemma=due --> RESTR: 0.140528
  (0) -1lemma=due --> NON-RESTR: -0.140528
  (0) +1lemma=due --> RESTR: 0.140528
  (0) +1lemma=due --> NON-RESTR: -0.140528
  (0) -1:word.lower=consider --> RESTR: -0.165504
  (0) -1:word.lower=consider --> NON-RESTR: 0.165504
  (0) +1:word.lower=designer --> RESTR: 1.212117
  (0) word.lower=styled --> RESTR: 0.243766
  (0) lemma=style --> RESTR: 0.244972
  (0) -1:word.lower=clocks --> RESTR: 0.243766
  (0) -1lemma=styled --> RESTR: 0.243766
  (0) +1lemma=styled --> RESTR: 0.243766
  (0) -1:word.lower=tennessee --> RESTR: 0.000940
  (0) word.lower=organizing --> RESTR: 0.307751
  (0) lemma=organize --> RESTR: 0.307751
  (0) -1lemma=organizing --> RESTR: 0.307751
  (0) +1:word.lower=effort --> RESTR: 0.307751
  (0) +1lemma=organizing --> RESTR: 0.307751
  (0) +1:word.lower=seaborne --> NON-RESTR: 0.397410
  (0) -1:word.lower=diversion --> NON-RESTR: 1.086141
  (0) -1:word.lower=force --> RESTR: -0.171077
  (0) -1:word.lower=force --> NON-RESTR: 0.171077
  (0) word.lower=western --> RESTR: 0.015177
  (0) lemma=Western --> RESTR: 0.015177
  (0) +1lemma=Western --> RESTR: 0.015177
  (0) -1:word.lower=opportunity --> RESTR: 0.051594
  (0) +1:word.lower=organization --> RESTR: 0.276014
  (0) word.lower=civil --> RESTR: -0.079346
  (0) word.lower=civil --> NON-RESTR: 0.079346
  (0) lemma=civil --> RESTR: -0.079346
  (0) lemma=civil --> NON-RESTR: 0.079346
  (0) -1:word.lower=violent --> RESTR: -0.081799
  (0) -1:word.lower=violent --> NON-RESTR: 0.081799
  (0) -1lemma=civil --> RESTR: -0.079346
  (0) -1lemma=civil --> NON-RESTR: 0.079346
  (0) +1:word.lower=disobedience --> RESTR: -0.081799
  (0) +1:word.lower=disobedience --> NON-RESTR: 0.081799
  (0) +1lemma=civil --> RESTR: -0.079346
  (0) +1lemma=civil --> NON-RESTR: 0.079346
  (0) +1:word.lower=get --> RESTR: 0.007396
  (0) -1:word.lower=remarks --> RESTR: -0.204316
  (0) -1:word.lower=remarks --> NON-RESTR: 0.204316
  (0) +1:word.lower=lawful --> NON-RESTR: 0.209000
  (0) +1:word.lower=use --> RESTR: 0.008084
  (0) +1:word.lower=protest --> RESTR: -0.015805
  (0) +1:word.lower=protest --> NON-RESTR: 0.015805
  (0) word.lower=hypothesized --> RESTR: 0.215893
  (0) lemma=hypothesize --> RESTR: 0.215893
  (0) -1:word.lower=situation --> RESTR: 0.217716
  (0) -1lemma=hypothesized --> RESTR: 0.215893
  (0) +1lemma=hypothesized --> RESTR: 0.215893
  (0) word.lower=urged --> RESTR: 0.265865
  (0) lemma=urge --> RESTR: 0.267064
  (0) -1lemma=urged --> RESTR: 0.265865
  (0) +1lemma=urged --> RESTR: 0.265865
  (0) -1lemma=great --> NON-RESTR: 0.005796
  (0) +1:word.lower=help --> RESTR: -0.000766
  (0) +1:word.lower=help --> NON-RESTR: 0.000766
  (0) +1lemma=great --> NON-RESTR: 0.005796
  (0) -1lemma=help --> RESTR: 0.281579
  (0) word.lower=increasing --> RESTR: 0.043530
  (0) -1lemma=increasing --> RESTR: 0.043530
  (0) +1:word.lower=ballot --> RESTR: 0.043206
  (0) +1lemma=increasing --> RESTR: 0.043530
  (0) word.lower=intensive --> NON-RESTR: 0.386070
  (0) -1:word.lower=audits --> RESTR: -0.643577
  (0) -1:word.lower=audits --> NON-RESTR: 0.643577
  (0) +1:word.lower=deterrents --> NON-RESTR: 0.254100
  (0) word.lower=developed --> RESTR: -0.035242
  (0) word.lower=developed --> NON-RESTR: 0.035242
  (0) -1lemma=developed --> RESTR: -0.038015
  (0) -1lemma=developed --> NON-RESTR: 0.038015
  (0) +1lemma=developed --> RESTR: -0.035242
  (0) +1lemma=developed --> NON-RESTR: 0.035242
  (0) word.lower=mixed --> RESTR: 0.000351
  (0) lemma=mixed --> RESTR: 0.000351
  (0) -1lemma=mixed --> RESTR: 0.000351
  (0) +1lemma=mixed --> RESTR: 0.000351
  (0) -1:word.lower=presence --> RESTR: -0.678507
  (0) -1:word.lower=presence --> NON-RESTR: 0.678507
  (0) word.lower=enables --> RESTR: 0.328244
  (0) lemma=enable --> RESTR: 0.335959
  (0) -1lemma=enables --> RESTR: 0.328244
  (0) +1lemma=enables --> RESTR: 0.328244
  (0) word.lower=levy --> NON-RESTR: 0.061825
  (0) lemma=Levy --> NON-RESTR: 0.061825
  (0) -1:word.lower=walter --> NON-RESTR: 0.061825
  (0) -1lemma=Levy --> NON-RESTR: 0.061825
  (0) +1lemma=Levy --> NON-RESTR: 0.061825
  (0) word.lower=thin --> NON-RESTR: 0.062729
  (0) lemma=thin --> NON-RESTR: 0.062729
  (0) -1lemma=thin --> NON-RESTR: 0.062729
  (0) +1:word.lower=films --> NON-RESTR: 0.062729
  (0) +1lemma=thin --> NON-RESTR: 0.062729
  (0) +1:word.lower=superconductors --> RESTR: 0.249416
  (0) -1:word.lower=companies --> RESTR: -1.011678
  (0) -1:word.lower=companies --> NON-RESTR: 1.011678
  (0) +1:word.lower=programs --> RESTR: 0.486760
  (0) -1:word.lower=programs --> RESTR: -0.614351
  (0) -1:word.lower=programs --> NON-RESTR: 0.614351
  (0) -1:word.lower=costs --> RESTR: -0.398813
  (0) -1:word.lower=costs --> NON-RESTR: 0.398813
  (0) +1:word.lower=commercializing --> NON-RESTR: 0.439303
  (0) -1:word.lower=commercializing --> RESTR: 0.241713
  (0) +1:word.lower=efforts --> RESTR: -0.000944
  (0) +1:word.lower=efforts --> NON-RESTR: 0.000944
  (0) -1:word.lower=efforts --> RESTR: 0.129030
  (0) -1:word.lower=efforts --> NON-RESTR: -0.129030
  (0) word.lower=charge --> RESTR: 0.016608
  (0) lemma=charge --> RESTR: 0.018741
  (0) -1lemma=charge --> RESTR: 0.017191
  (0) +1lemma=charge --> RESTR: 0.018741
  (0) lemma=feed --> RESTR: 0.289086
  (0) -1:word.lower=knocking --> RESTR: 0.289086
  (0) -1lemma=feed --> RESTR: 0.289086
  (0) +1lemma=fed --> RESTR: 0.289086
  (0) +1:word.lower=continuing --> RESTR: -0.320827
  (0) +1:word.lower=continuing --> NON-RESTR: 0.320827
  (0) -1:word.lower=chemical --> RESTR: -0.035260
  (0) -1:word.lower=chemical --> NON-RESTR: 0.035260
  (0) -1:word.lower=quarter --> RESTR: -0.266237
  (0) -1:word.lower=quarter --> NON-RESTR: 0.266237
  (0) -1:word.lower=often --> RESTR: 2.189023
  (0) word.lower=encountered --> RESTR: 0.360789
  (0) lemma=encounter --> RESTR: 0.360789
  (0) -1:word.lower=wathen --> RESTR: 0.366584
  (0) -1lemma=encountered --> RESTR: 0.360789
  (0) +1lemma=encountered --> RESTR: 0.360789
  (0) +1:word.lower=pinkerton --> RESTR: 0.404199
  (0) word.lower=overhead --> NON-RESTR: 0.087661
  (0) lemma=overhead --> NON-RESTR: 0.087661
  (0) -1:word.lower=slashing --> NON-RESTR: 0.087661
  (0) -1lemma=overhead --> NON-RESTR: 0.087661
  (0) +1lemma=overhead --> NON-RESTR: 0.087661
  (0) +1:word.lower=average --> RESTR: 0.162005
  (0) -1:word.lower=failure --> RESTR: 0.053730
  (0) +1:word.lower=surrender --> RESTR: 0.053730
  (0) lemma=surrender --> RESTR: 0.147533
  (0) -1:word.lower=damaged --> RESTR: 0.404763
  (0) word.lower=valuable --> NON-RESTR: 0.024513
  (0) lemma=valuable --> NON-RESTR: 0.024513
  (0) -1lemma=valuable --> NON-RESTR: 0.024513
  (0) +1:word.lower=artifact --> NON-RESTR: 0.024513
  (0) +1lemma=valuable --> NON-RESTR: 0.024513
  (0) -1:word.lower=currently --> RESTR: -0.028568
  (0) -1:word.lower=currently --> NON-RESTR: 0.028568
  (0) +1:word.lower=tender --> RESTR: 0.237340
